svm_type c_svc
kernel_type rbf
gamma 8
nr_class 8
total_sv 1023
rho 1.26234 0.425419 1.49271 2.91813 -5.6798 12.4362 -11.9232 -0.688743 -0.973175 -0.87881 -0.965363 -0.916819 -0.986217 5.34776 -0.583192 -28.4144 -1.20968 -5.27387 -49.2375 -107.208 -30.8716 -293.883 -58.5275 -22.4255 -96.6057 13.2057 -2.55777 -35.5216
label 1 2 3 4 5 6 7 8
nr_sv 52 259 134 182 138 93 67 98
SV
1.980970152749379 0.3871861698069755 0 1.233584363240801 0 4.187268683257821 0 1:-0.678863 2:-0.736218 3:-0.057377 4:-0.985145 5:-0.649499 6:-0.522862 
0 1.059545270683256 0 0 0 0 0 1:-0.268857 2:-0.916851 3:0.237705 4:-0.982491 5:-0.717355 6:-0.993169 
3.443297061615988 0.3657957797738416 0 1.008529329206903 0 3.44066244490419 0 1:-0.5599 2:-0.481043 3:0.0532787 4:-0.847739 5:-0.180989 6:-0.624547 
0 0.01869257716107566 0 0.0173215089528462 0 0.06023339967724418 0 1:-0.617517 2:-0.620814 3:0.0245902 4:-0.932672 5:-0.325755 6:-0.548847 
0 0 105.0904292248481 0 0 0 0 1:-0.368272 2:-0.798965 3:0.282787 4:-0.915373 5:-0.447305 6:-0.988159 
1.012690720065613 0.5147422180270077 0.4965666305286944 1.366033159262721 0 4.658506073522494 0 1:-0.492766 2:-0.493011 3:0.245902 4:-0.828073 5:-0.220842 6:-0.569697 
7.082276241293142 206.8010034435633 16384 16384 419.3842750613739 15219.43655644055 2030.90458148265 1:0.0147257 2:-0.292134 3:0.995902 4:-0.891387 5:0.455853 6:-0.921029 
4.713776368782487 1.670679820786711 0.6006081029750682 0.4287027280595544 0 2.384584866393377 0 1:-0.815832 2:-0.857455 3:-0.520492 4:-0.967762 5:-0.762738 6:-0.81481 
2.049106767819138 1.345187536367405 2.453932781938802 3.613909668018934 0 12.41188882343623 0 1:-0.361713 2:-0.0328396 3:0.0819672 4:-0.950554 5:0.0288855 6:-0.691829 
10.17233442101804 0 0 0 0 0 0 1:-0.390779 2:-0.870338 3:0.331967 4:-0.935131 5:-0.754977 6:-0.972777 
20.82454894172115 0 42.26605779443586 0 0 0 0 1:-0.357212 2:-0.751851 3:0.127049 4:-0.869816 5:-0.398655 6:-0.986707 
0 0.01970196319667649 0 0.6360196956091974 0 1.888698960177337 0 1:-0.457398 2:-0.801253 3:-0.0614754 4:-0.878502 5:-0.495063 6:-0.990081 
0 0 35.07275713855083 0 0 0 0 1:-0.459713 2:-0.775741 3:0.254098 4:-0.877168 5:-0.46155 6:-0.988341 
0.6155965405248229 0.9116434674579186 1.591053720625057 2.419178200425854 0 8.308489899990819 0 1:-0.644267 2:-0.659826 3:-0.143443 4:-0.986408 5:-0.505309 6:-0.418995 
100.5959734962339 0 0 0 0 0 0 1:-0.72632 2:-0.95254 3:-0.135246 4:-0.993281 5:-0.733586 6:-0.989824 
10.30185161651297 0 0 0 0 0 0 1:-0.545881 2:-0.801995 3:0.17623 4:-0.871469 5:-0.615787 6:-0.993103 
0 0 60.08525035552557 0 0 0 0 1:-0.370587 2:-0.74469 3:0.188525 4:-0.870288 5:-0.374339 6:-0.982753 
0 115.5980932947552 14967.97900731672 0 292.4685030111684 16384 0 1:-0.00623754 2:-0.260014 3:0.991803 4:-0.879791 5:0.466073 6:-0.920294 
0 0 45.90081506873409 0 0 0 0 1:-0.345508 2:-0.852746 3:0.20082 4:-0.947379 5:-0.450265 6:-0.98813 
38.17642357500201 0 0 0 0 0 0 1:-0.456369 2:-0.803666 3:-0.0655738 4:-0.878402 5:-0.511286 6:-0.990666 
68.68795066498267 1.225799814357411 1.953075175898327 5.462496020787924 0 10.75150974882951 0 1:-0.970934 2:-0.952489 3:-0.889344 4:-0.976545 5:-0.854313 6:-0.974328 
0 0 447.0225323557309 0 0 0 0 1:-0.390907 2:-0.827667 3:0.159836 4:-0.914725 5:-0.496814 6:-0.990184 
60.08279275004382 0 0 0 0 0 0 1:-0.575076 2:-0.898254 3:-0.196721 4:-0.938139 5:-0.636579 6:-0.994176 
2.019909661719263 1.108559133821153 0 2.963572996347998 0 9.546943132303779 0 1:-0.186162 2:-0.650912 3:0.270492 4:-0.94271 5:-0.0280218 6:-0.964638 
3.140959546172839 0.01693030858181227 0 0 0 0 0 1:-0.473732 2:-0.866053 3:0.127049 4:-0.96297 5:-0.928033 6:-0.976359 
0 0 7.259569699596625 0 0 0 0 1:-0.431548 2:-0.754799 3:0.258197 4:-0.866703 5:-0.417658 6:-0.987317 
33.79613432010518 0 0 0 0 0 0 1:-0.480548 2:-0.814351 3:-0.0163934 4:-0.871939 5:-0.811941 6:-0.990777 
0 0.6594582802210328 1.103366642140231 1.49517176722135 0 6.263529740958473 0 1:-0.641952 2:-0.958876 3:-0.606557 4:-0.990718 5:-0.674062 6:-0.994307 
0.4129223384316201 45.02420320740495 0 491.2549435646803 111.0083346067735 16384 0 1:-0.117999 2:-0.227518 3:0.963115 4:-0.847878 5:0.471897 6:-0.913527 
4.527616858914195 0.795231325511665 0 2.334457398780367 0 8.100205925614247 0 1:-0.349367 2:-0.912886 3:0.512295 4:-0.984982 5:-0.542876 6:-0.989583 
0 0.7802929727646427 0 0.5642445365409888 0 1.93673948693521 0 1:-0.300495 2:-0.855847 3:0.0532787 4:-0.960607 5:-0.811392 6:-0.960857 
0 0 101.0022757348177 0 0 0 0 1:-0.449296 2:-0.760653 3:0.25 4:-0.87156 5:-0.457465 6:-0.988087 
247.9982087111339 0.6377073794052656 1.727434793015286 2.230452243289439 0 7.866729334454947 0 1:-0.943798 2:-0.99712 3:-0.401639 4:-0.997395 5:-0.97356 6:-0.999937 
2.199054259810151 1.234927686869324 2.009259501071608 3.402705669722142 0 11.6745965104107 0 1:-0.264742 2:-0.566433 3:0.241803 4:-0.933132 5:-0.817434 6:-0.472826 
9.312206189060483 0.1870898444760965 2.48242179582937 0.5617621952520499 0 2.075125722413221 0 1:-0.559514 2:-0.568905 3:0.266393 4:-0.820497 5:-0.185126 6:-0.810926 
0 0.5989241118177834 0 1.756803370186093 0 5.914581661309471 0 1:-0.592181 2:-0.9973 3:-0.168033 4:-0.99936 5:-0.937522 6:-0.999788 
0 0 108.6660300760855 0 0 0 0 1:-0.350395 2:-0.842439 3:0.221311 4:-0.934205 5:-0.516957 6:-0.990803 
7.489260415950683 1.666954838808397 2.51953546824816 3.892290973334009 0 13.59153324159791 0 1:-0.157996 2:0.098783 3:0.27459 4:-0.291321 5:0.117605 6:-0.950029 
0 0 0 0.1599372620456622 0 0.6403491846305632 0 1:-0.606713 2:-0.942298 3:0.0655738 4:-0.978557 5:-0.797023 6:-0.990155 
0 0 0 0.0746030347743218 0 0.1599118058739049 0 1:-0.535207 2:-0.865479 3:0.254098 4:-0.932463 5:-0.619942 6:-0.994013 
0 0 0 0.3067540248992483 0 1.025761634144323 0 1:-0.316443 2:-0.897796 3:0.27459 4:-0.952578 5:-0.805855 6:-0.981765 
3.253441706386762 0 0 0 0 0 0 1:-0.306283 2:-0.891261 3:0.0245902 4:-0.987172 5:-0.726513 6:-0.995688 
74.03370624933427 0 0 0 0 0 0 1:-0.604784 2:-0.95287 3:-0.32377 4:-0.975154 5:-0.763939 6:-0.997333 
2.965085161449624 0.1774847781007841 0 1.823708206582501 0 6.271046579951142 0 1:-0.425632 2:-0.881419 3:0.172131 4:-0.929321 5:-0.914131 6:-0.989343 
44.6541568817206 0.4176382497983142 0 1.275420857985194 0 3.716065422774681 0 1:-0.731336 2:-0.941533 3:-0.327869 4:-0.996051 5:-0.580026 6:-0.972594 
0 0 8.171065814137544 0 0 0 0 1:-0.320815 2:-0.84382 3:0.27459 4:-0.943762 5:-0.416135 6:-0.984081 
0 0.2949443779313806 0 0.59182263070398 0 2.424821159799885 0 1:-0.530705 2:-0.863774 3:-0.0901639 4:-0.937575 5:-0.501135 6:-0.987908 
1.46045210293026 1.392782162223741 0 2.539270340875702 0 8.449351075706908 0 1:-0.201852 2:-0.640622 3:0.540984 4:-0.772921 5:-0.355483 6:-0.97959 
0 0 1314.567844882768 72.78778350769508 0 230.5374676219383 212.2815791381369 1:-0.0387756 2:-0.242262 3:0.991803 4:-0.895364 5:0.508897 6:-0.890014 
0 0.5504834790392899 0 1.611986152048102 0 5.662458808102435 0 1:-0.277989 2:-0.878974 3:0.0819672 4:-0.990751 5:-0.359329 6:-0.983809 
0 0 0.0564474496576951 0.1517093674230309 0 0 0 1:-0.617645 2:-0.945854 3:-0.602459 4:-0.989363 5:-0.757876 6:-0.981704 
6.301427322699319 1.056437243320665 1.160863615415795 2.888794837267798 0 9.900153036031544 0 1:-0.624461 2:-0.362392 3:0.155738 4:-0.656538 5:-0.497251 6:-0.818509 
0 0 0 0.03195581248329388 0.009524893013341154 0 0.003116672543496901 1:-0.427432 2:-0.246233 3:0.803279 4:-0.437871 5:-0.80965 6:-0.735374 
0 0 0 0.009054197890535905 0.002660379901926215 0 0 1:-0.107067 2:-0.318823 3:0.959016 4:-0.41949 5:-0.716943 6:-0.853686 
0 0.1138618392926926 0.007005957173582069 0.03366278898969181 0.009359882148904821 0.02321183490313121 0.003950367146185338 1:0.168285 2:0.44374 3:0.463115 4:-0.598353 5:-0.459736 6:0.0914151 
0 0.0960117983798201 0 0.04203091486557717 0.01261008277172633 0.02831705967963794 0.004880240778716734 1:-0.555141 2:-0.994602 3:0.122951 4:-0.995461 5:-0.9656 6:-0.998817 
0 0.227002555796429 0.01925662889346271 0.0899131390625596 0.02590455744619518 0.06189134070895749 0.009651380520163214 1:0.954472 2:-0.932557 3:-0.270492 4:-0.94223 5:-0.849528 6:-0.997224 
0 0.2441005360221876 0.00305937705540477 0.09313008851966163 0.02452371289341812 0.01870843634042159 0.01075562389251344 1:0.0449489 2:-0.343991 3:-0.122951 4:-0.726596 5:0.251448 6:-0.932504 
-3.610302601143673 0 1.741520124475713 0.02185234893050124 0.00590234791146805 0.01726996922579671 0.001242514716781277 1:-0.605685 2:-0.749582 3:0.438525 4:-0.801972 5:-0.59516 6:-0.981655 
0 0 0 0 0 0.007239539253131169 0 1:0.263584 2:-0.406651 3:0.918033 4:-0.456909 5:-0.830611 6:-0.89557 
0 0.08092445549523197 0.008519073296262593 0.04660927089709704 0.01348370384373641 0.03098227386028256 0.005785457676081235 1:-0.0765867 2:-0.0670578 3:0.29918 4:-0.27833 5:-0.729921 6:-0.714889 
-22.27484873431505 0 0 0 0 0 0 1:-0.872034 2:-0.999816 3:-0.639344 4:-0.999834 5:-0.993548 6:-0.999996 
0 0 0.009376478506376974 0.04425240272038172 0.01268192559404331 0.03094226335682949 0.003962902711714451 1:0.699698 2:-0.972597 3:0.336066 4:-0.992068 5:-0.922252 6:-0.979395 
0 0 0.002369197277992983 0.00942000961730452 0.003057432495568082 0 0 1:0.0796733 2:0.0905544 3:0.413934 4:0.0654818 5:-0.760783 6:-0.863434 
0 0 0 0.02290132434685368 0.005058618713814534 0.008433768436975174 0.001586825030155296 1:-0.799241 2:-0.746251 3:0.0204918 4:-0.835759 5:-0.729849 6:-0.898663 
0 138.4189881605867 0 0 0 0 0 1:-0.00790946 2:-0.750554 3:0.840164 4:-0.753553 5:-0.85562 6:-0.978507 
0 0 0.0051775825967899 0.05046078010834763 0.01550753768195811 0.03028148204762292 0.004337125251957653 1:0.350524 2:-0.0874044 3:0.79918 4:-0.401501 5:-0.625809 6:-0.615057 
-56.11460184851718 0 0 2.336408492011813 0 0 0 1:-0.969648 2:-0.94773 3:-0.901639 4:-0.954676 5:-0.883402 6:-0.999341 
0 2.473801300616395 0 0 0 0 0.002907510943045402 1:-0.0372323 2:-0.450148 3:0.569672 4:-0.533808 5:-0.523878 6:-0.983371 
0 0.2237883288256368 0.01969422221678589 0.08759377312078782 0.02533014283421919 0.05997968322130484 0.009495675547529069 1:-0.0138255 2:0.658378 3:0.307377 4:-0.436598 5:-0.54051 6:0.21555 
0 0 0.003421331807386001 0 0 0 0 1:0.00353675 2:-0.430325 3:0.918033 4:-0.6289 5:-0.832459 6:-0.753345 
0 0 0.01012586922326597 0.03588623079885831 0.01021295712959699 0.02878550982546292 0.003428295815596145 1:0.336763 2:-0.550751 3:0.856557 4:-0.531041 5:-0.880166 6:-0.971301 
0 0 0 0.006408258842416729 0.003929058539756891 0.01274001301189208 0.001848574835623131 1:-0.588451 2:0.371757 3:-0.815574 4:0.138697 5:-0.584174 6:-0.954681 
0 0.009622056168685748 0 0 0 0 0 1:-0.850942 2:-0.868829 3:-0.668033 4:-0.959093 5:-0.908805 6:-0.899128 
0 0.6113794409014997 0.02464223270055208 0.1011317397891115 0.02855830272391718 0.05680246370852136 0.01224146344173431 1:-0.223072 2:0.29141 3:-0.0942623 4:-0.474723 5:0.827464 6:-0.833021 
0 0 0.02812110159567883 0.01556624781616071 0.004560003639780757 0.000923041920206338 0.002341602097886922 1:-0.0547232 2:-0.5884 3:0.139344 4:-0.7853 5:-0.664346 6:-0.801507 
0 4.25626459307348 0 0.05411820628978144 0.01702287233108897 0.03954043880156781 0.002835415209871493 1:0.145521 2:-0.973618 3:-0.20082 4:-0.986922 5:-0.900885 6:-0.987757 
-24.45325899611236 0 0 0 0 0 0 1:-0.554755 2:-0.883343 3:0.0942623 4:-0.892998 5:-0.901481 6:-0.980269 
0 0.123130455666776 0 0 0 0 0 1:0.426146 2:-0.138855 3:0.491803 4:-0.385142 5:0.0228714 6:-0.959678 
0 0 0 0.007486990755308114 0.002304711444868903 0.002220520035791743 0.0006116940260817636 1:0.638994 2:-0.658488 3:0.655738 4:-0.664068 5:-0.830257 6:-0.973999 
0 0.2593119488710156 0.02137324275963548 0.09848552161097936 0.02808125199450501 0.2539343329587637 0.01118973933440221 1:0.35644 2:0.114873 3:-0.045082 4:-0.125551 5:-0.0623585 6:-0.959361 
0 0 0.005804972912386653 0.01919562306173878 0.002904821905580668 0.005094817418944924 0.0005691349760864754 1:-0.607871 2:0.323129 3:-0.819672 4:-0.0314463 5:-0.516603 6:-0.953188 
0 0 0 0.02497924494545942 0.006090946963380313 0.01350412008844158 0.004769870839444707 1:0.177159 2:-0.825337 3:-0.262295 4:-0.846045 5:-0.820659 6:-0.997678 
0 0.05246482500615703 0 0.009476865629909669 0.003345857476927908 0.0123529603716793 0.0005685527669065189 1:-0.609929 2:-0.0782652 3:0.286885 4:-0.00143773 5:-0.852816 6:-0.997874 
0 0.1247817638935379 0.00156142315764209 0.05536812360210232 0.01664556253552223 0.02579108510057722 0.006884853376409979 1:-0.189763 2:-0.139071 3:-0.131148 4:-0.286931 5:-0.455395 6:-0.984284 
0 0.2721935632677753 0.01690346911317756 0.06851452976639967 0.0192951685678478 0.04702821556194946 0.008529774993266376 1:0.55154 2:-0.999907 3:-0.614754 4:-0.999886 5:-0.998281 6:-0.999999 
0 3.282301563434863 0 0 0 0 0.002880662764034317 1:-0.274773 2:-0.509145 3:0.860656 4:-0.762879 5:-0.551087 6:-0.979816 
0 0 0 0.05039125412170058 0.01451451724514915 0.01316394648749781 0.004834608607042838 1:-0.0805736 2:-0.397125 3:0.840164 4:-0.786479 5:-0.726317 6:-0.568246 
0 0.1399711796351826 0 0.001633150807180135 0.004686275517513359 0.03239043818884901 0.006463410606145219 1:-0.48312 2:-0.0685662 3:0.454918 4:-0.439141 5:-0.485995 6:-0.588941 
0 21.25501519525853 0 0.0319927016645235 0.009051422545554046 0 0.004052399709410124 1:-0.113112 2:-0.538929 3:0.92623 4:-0.509475 5:-0.886945 6:-0.981157 
0 0 0.007633480636422012 0.0224396698588201 0.0058365551054343 0.006054191727415202 0.003245815039787557 1:0.196836 2:0.150312 3:0.692623 4:0.111066 5:-0.485007 6:-0.892481 
0 0.251387578554864 0.02083594140023229 0.09390249416275494 0.02682721419639123 0.06458681768434155 0.01090620572233033 1:0.422802 2:0.411472 3:-0.0163934 4:-0.562386 5:-0.456595 6:0.0541528 
-0.6711783724633805 0.1313571218210454 0 0.04668741519163851 0.01099125004694782 0.04282578183606744 0.004471777045822875 1:-0.42396 2:-0.577228 3:-0.27459 4:-0.848866 5:-0.343005 6:-0.9066 
0 0.2351977682146392 0.020400794209731 0.09124125010191198 0.02591404661415317 0.06301856572024472 0.01063089858426318 1:0.659829 2:0.181894 3:-0.82377 4:0.264292 5:-0.778336 6:-0.996382 
-2.254591387884605 0 0.8321781780303432 0 0 0.2392622227568828 0.001409380047874979 1:-0.293036 2:-0.452121 3:0.42623 4:-0.690829 5:-0.26404 6:-0.765947 
0 0 0.008704817366229014 0.02981281871262152 0.008058681733711756 0.03326162367867296 0.004301079064857438 1:-0.576104 2:0.0224139 3:-0.0942623 4:0.0156234 5:-0.438844 6:-0.980153 
0 0.2516578869835796 0 0 0 0 0 1:-0.066941 2:-0.415782 3:0.959016 4:-0.468522 5:-0.688068 6:-0.901007 
0 2.104651691028817 0 0 0 0 0 1:0.0679699 2:-0.865061 3:0.553279 4:-0.941948 5:-0.909404 6:-0.911718 
0 0.008668210516581159 0 0.00688846049601017 0.002147344596769574 0.004103299816271668 0 1:0.997428 2:-0.996497 3:-0.82377 4:-0.999216 5:-0.924912 6:-0.999168 
0 0 0.001543326928712649 0.03753832859566074 0.01080901659290741 0.01357136756480403 0.004462366768243253 1:0.160183 2:-0.623434 3:0.92623 4:-0.828525 5:-0.710949 6:-0.84024 
0 0.2514783117294075 0.02471661998968173 0.0991719116402433 0.0281689073078894 0.07205938354376555 0.01164747425985273 1:-0.0891904 2:-0.0704063 3:0.872951 4:-0.842855 5:-0.742111 6:-0.157468 
-0.3951022086737903 0 0 0 0 0 0.005356467664788 1:-0.283133 2:-0.0198513 3:0.389344 4:-0.257459 5:-0.0603836 6:-0.966074 
0 0 0.00930868108538644 0.004632659602977312 0.001344894935444957 0 0 1:-0.238634 2:-0.196135 3:0.631148 4:-0.110551 5:-0.924135 6:-0.998268 
0 0 0 0.02956648608810381 0.007890149613449039 0 0.001569579086071892 1:-0.640666 2:-0.581382 3:0.70082 4:-0.620805 5:-0.690276 6:-0.939598 
0 0 0 0 0.0005582668931759906 0.003979978025958594 0.002386248564236749 1:0.720018 2:-0.288065 3:-0.0491803 4:-0.225934 5:-0.855001 6:-0.99481 
0 0.1561748516507196 0.01397213329921587 0.06052606211908113 0.01738375217477106 0.04357396741360538 0.007589982985155314 1:0.560414 2:0.157643 3:-0.290984 4:0.255149 5:-0.834074 6:-0.975812 
0 0.3561352611061371 0.01580905779567234 0.07180761914100428 0.02059262709970977 0.0494645025704303 0.007650719366569019 1:-0.295737 2:0.471272 3:0.290984 4:0.597309 5:-0.795039 6:-0.970147 
0 0 0.03809054939662167 0 0 0 0 1:-0.084046 2:-0.670072 3:0.286885 4:-0.762337 5:-0.786017 6:-0.885485 
0 0.308367203761318 0.01387402117784462 0.04321164387832197 0.01115974666540206 0.03867150595666158 0.006160318868717429 1:0.229246 2:0.0514434 3:0.672131 4:-0.349765 5:-0.508612 6:-0.533684 
0 0.05271278675165234 0.00793892026042041 0.02070726360877081 0.003347000333650381 0 0.002268269706038991 1:0.374317 2:-0.131068 3:0.135246 4:-0.229878 5:-0.325274 6:-0.980809 
0 0 0.009748916389170951 0.04626359510414699 0.01379056558383556 0.03997091766048402 0.005639730277984751 1:0.120057 2:-0.045864 3:0.795082 4:0.0333525 5:-0.882909 6:-0.976076 
0 0.2696986647247717 0.02333585627480034 0.1051225339103634 0.0298381775848458 0.07206646876926713 0.01196867690064485 1:-0.292007 2:0.917834 3:-0.766393 4:-0.940761 5:-0.218792 6:0.922207 
0 0 0.1138921080192282 0 0 0.008308596844922609 0 1:-0.143978 2:-0.798456 3:-0.00819672 4:-0.812933 5:-0.66356 6:-0.994497 
0 0 0 0 0 0.003861836924836129 0.0009070904972580195 1:-0.145521 2:-0.925355 3:0.627049 4:-0.942208 5:-0.914024 6:-0.977276 
0 0.227880359731695 0.009950285254207807 0.01030384755395982 0.003805809110742529 0 0.00326354621732942 1:-0.0689988 2:0.169104 3:0.327869 4:0.0429556 5:-0.352232 6:-0.981008 
-192.7821350734937 0 0 0 0.007275428847497869 0.01907572179086611 0.003276552594601842 1:-0.638608 2:-0.9626 3:-0.229508 4:-0.993028 5:-0.682791 6:-0.996291 
0 0 0 0.03475315401372635 0.009237643856056457 0 0.004937627894734968 1:0.446981 2:-0.534549 3:0.377049 4:-0.645165 5:-0.338054 6:-0.982525 
0 0.3236102522509067 0.007471574024876452 0 0.01020049260080721 0.02810933267993842 0.002565635545098421 1:-0.563887 2:-0.999556 3:-0.770492 4:-1 5:-0.998166 6:-0.999509 
0 0.01193498779149826 0 0 0 0.002937599383856373 0 1:-0.845026 2:-0.833895 3:0.319672 4:-0.829485 5:-0.907509 6:-0.988591 
0 0 0 0 0.02547097327579623 2.108619555868971 0 1:0.273616 2:-0.0385775 3:0.487705 4:-0.436481 5:0.111058 6:-0.952984 
0 0 0.001068371513000705 0.001153477489717457 0 0 0.002229854443711001 1:0.908302 2:-0.776825 3:-0.512295 4:-0.794288 5:-0.837995 6:-0.995897 
0 0.1748508724492473 0.01694203349172983 0.07056960911270424 0.02023311253543162 0.04963340315165736 0.007906870244848398 1:0.225773 2:-0.181828 3:-0.495902 4:-0.572714 5:-0.0522708 6:-0.959052 
0 0.6168521757764885 0.003998070527546581 0.02480709519873919 0.007325611868774051 0.01714470039000187 0.002552973261968967 1:0.436049 2:-0.885889 3:0.163934 4:-0.876373 5:-0.958161 6:-0.998163 
-0.4172084003831373 0 0 0 0 0 0 1:-0.444795 2:-0.341718 3:0.172131 4:-0.369779 5:-0.712026 6:-0.952918 
0 0 0.002842936395860098 0.01504192928677724 0.003299964524257697 0.01879074050274151 0.0005339730949963633 1:0.248023 2:-0.143626 3:0.893443 4:-0.263727 5:-0.758414 6:-0.814182 
0 0.04569988605611382 0.008416286326767841 0.02158350631444794 0.005959976626721534 0.01706186807896095 0.001978092930856097 1:0.312199 2:-0.314184 3:0.262295 4:-0.266951 5:-0.81833 6:-0.988671 
0 0.5698380490018717 0 0.01147392334187315 0.003596690389513229 0.007364563656891183 0.001880178769976993 1:0.358241 2:-0.930064 3:0.389344 4:-0.940113 5:-0.763409 6:-0.997668 
-12.9914501366917 0 0.9482316736013411 0 0 0 0.0009849574242798422 1:-0.306283 2:-0.907729 3:0.434426 4:-0.953145 5:-0.72087 6:-0.987244 
0 0.09617922167235898 0 0 0 0 0 1:0.218571 2:-0.786129 3:0.22541 4:-0.844484 5:-0.797273 6:-0.936455 
0 0 0 0.008371634470881378 0 0 0 1:-0.455469 2:-0.669385 3:-0.192623 4:-0.737967 5:-0.813675 6:-0.916158 
0 0 0 0 0.003971423813087673 0 0.001692014153618323 1:-0.367886 2:-0.492658 3:0.877049 4:-0.754035 5:-0.571282 6:-0.761062 
0 0.9838459529935132 0.01723367552702634 0.07649028400201652 0.02193332447407975 0.05206216440442542 0.008792359111442383 1:-0.219343 2:0.675102 3:0.241803 4:0.770352 5:-0.797924 6:-0.985064 
0 0 0.009150957686722187 0.03364999215863969 0.01027419197622851 0.02902085201187959 0.004793438538146495 1:0.751141 2:-0.609171 3:0.381148 4:-0.657697 5:-0.730206 6:-0.925063 
0 0.06443760632582925 0.003323575248038392 0.01859114892933603 0.005609035539526355 0.01410898892803185 0 1:0.827535 2:-0.697984 3:-0.430328 4:-0.677982 5:-0.873941 6:-0.993979 
0 0.2253672784455753 0.01948872781459993 0.08864180305922897 0.0251692195801131 0.05355165018866569 0.009972093885274716 1:0.167899 2:0.17568 3:-0.17623 4:0.200371 5:-0.702488 6:-0.988943 
0 0 0 0.01613258034091192 0.004534608896542034 0.01526265624512943 0.00122878179363718 1:0.424474 2:-0.564012 3:-0.127049 4:-0.745702 5:-0.505589 6:-0.954987 
0 0.05393948276802972 0 0.02666936339355259 0.007037932618112953 0.003536712326906888 0.001459225370891532 1:-0.839367 2:-0.947096 3:0.438525 4:-0.965221 5:-0.91555 6:-0.992651 
0 1.607597346742828 0.004061247443013862 0.1996586851465695 0.06839176955087793 0.2964051084832987 0.009560666025476394 1:-0.408398 2:0.10271 3:0.368852 4:-0.623115 5:0.612336 6:-0.741329 
0 0 0 0.007181498464561241 0 0 0 1:-0.414443 2:-0.173855 3:0.561475 4:-0.46638 5:-0.663675 6:-0.653545 
0 0.09894055698339498 0.007006057363442828 0.03768309386830632 0.01078390906681798 0.02467516388161855 0.002354304533029317 1:0.930808 2:-0.717016 3:-0.946721 4:-0.691091 5:-0.930498 6:-0.999588 
0 0.1646293042404809 0 0 0.01586402025288336 0.03853630733993984 0.004899774944051527 1:-0.965404 2:-0.998363 3:-0.143443 4:-0.998418 5:-0.994899 6:-0.999891 
-5.399120635835507 0 0 0.02903865594715648 0.008571028412676389 0.0232985173349309 0.004025915700521915 1:-0.470002 2:-0.690433 3:-0.151639 4:-0.897035 5:-0.793876 6:-0.816779 
0 0 0 0.001660331305588675 0 0 0 1:-0.239792 2:-0.420356 3:0.122951 4:-0.384977 5:-0.739108 6:-0.996155 
0 0.1103647482959454 0.0178786215631959 0.08472022815934491 0.02345268792077104 0.05635848932351238 0.009565880028728472 1:-0.783165 2:-0.187205 3:-0.877049 4:-0.441143 5:-0.54163 6:-0.697091 
-6.168346957407405 0 2.015212161662481 0 0 0 0 1:-0.451354 2:-0.613437 3:0.17623 4:-0.751122 5:-0.269553 6:-0.978913 
0 0 0.00603344119289315 0.03044695709913714 0.008601976601007961 0 0.003959785574543085 1:0.34718 2:0.0255976 3:0.618852 4:0.101036 5:-0.724429 6:-0.985362 
0 0.3098337542813043 0.02567748903062717 0.1159063705203542 0.03284373902211196 0.07948354621718576 0.01314848121593782 1:0.052151 2:-0.191434 3:-0.139344 4:-0.955729 5:-0.330453 6:0.427779 
0 0 0.005878412099923004 0.0148439986310717 0.005419002006534415 0.007274560758388851 0.0007483997534582222 1:0.558228 2:-0.741445 3:-0.491803 4:-0.859754 5:-0.669505 6:-0.96605 
0 0.1029903433293202 0 0 0 0 0 1:-0.639766 2:0.0979507 3:-0.663934 4:-0.109553 5:-0.577815 6:-0.970831 
0 4.094413178301737 0 0 0.001814876452652492 0.005710949996641229 0.001071630248018902 1:-0.896727 2:-0.768074 3:-0.57377 4:-0.864621 5:-0.704391 6:-0.905742 
0 3.556505080708064 0.009809373340039519 0.02950754145045337 0.01191171344000458 0.02943947594136045 0.004453389315379827 1:-0.770433 2:-0.148709 3:-0.827869 4:-0.359523 5:-0.501518 6:-0.978746 
0 0.5851200185153886 0.01692765384371039 0.07967357939636009 0.02345830227604238 0.05719069271437001 0.00981897785282511 1:-0.607614 2:0.316803 3:-0.733607 4:-0.0801186 5:-0.319635 6:-0.957259 
0 0.2117669822742713 0.01797177716146292 0.08197181431177597 0.02371800439172278 0.05656563796558872 0.009854445228881903 1:0.968877 2:-0.868567 3:-0.971311 4:-0.967054 5:-0.499503 6:-0.979991 
-60.2500370574257 0 1.901107575095746 0 0 0 0 1:-0.452125 2:-0.773599 3:0.00819672 4:-0.846898 5:-0.58576 6:-0.990325 
0 0 0.003725957068760878 0 0 0 0.005950724199571246 1:0.240821 2:-0.0975577 3:0.418033 4:-0.273749 5:-0.239713 6:-0.975719 
0 0 0 0.02666547532409691 0.006840974246357733 0.03515372239347529 0.002091782166387593 1:-0.743682 2:-0.948019 3:0.512295 4:-0.951496 5:-0.933693 6:-0.992492 
0 0.101452078191599 0.009218100028252272 0.03808561711365324 0.01114112652555438 0.02423601376917746 0.003892923367037902 1:0.715131 2:-0.521831 3:-0.22541 4:-0.471351 5:-0.936204 6:-0.997273 
0 0 0.08639600563000517 4.33455029897468 0.6327283084598661 12.60888193704704 0 1:-0.32313 2:-0.126716 3:0.495902 4:-0.505699 5:0.0896937 6:-0.939083 
0 0.1218174897113114 0.01066490391415736 0.05478215296080406 0.0159850353508135 0.03964300617721075 0.006073745877908024 1:0.379075 2:-0.277699 3:0.0819672 4:-0.606656 5:-0.727687 6:-0.616165 
0 0.001535469205674734 0 0.02826237451459816 0.00932672920719131 0 0.003218267463645002 1:-0.228603 2:-0.439709 3:-0.045082 4:-0.73157 5:-0.486611 6:-0.857907 
0 0.1358113149750806 0.011625588471069 0.05129732746315721 0.01419233841789219 0.0336994072358843 0.006877927348985021 1:0.778664 2:-0.397613 3:-0.586066 4:-0.520646 5:-0.82101 6:-0.970909 
0 0 0 0.02925527639083303 0.009035400386616693 0.01904168768366 0.003808101178853148 1:-0.398367 2:-0.58469 3:0.143443 4:-0.577922 5:-0.897085 6:-0.988839 
0 0.1911461989951276 0 0.07120100261247528 0.01903112695526056 0.04217964453430263 0.007960221303538509 1:-0.727992 2:-0.489569 3:0.102459 4:-0.496815 5:-0.785916 6:-0.994167 
0 0.3153301095835585 0.0269019862696547 0.1208861851573679 0.03461955980862592 0.08326945735564434 0.01389716207339148 1:0.454955 2:0.535058 3:-0.196721 4:-0.272149 5:0.443445 6:-0.241336 
0 0.1546803683210897 0.01785848819833291 0.07879174495335803 0.02247751162869321 0.05393143368162455 0.008459995859408397 1:-0.33702 2:0.56421 3:-0.413934 4:0.732707 5:-0.89034 6:-0.996437 
0 0 0 0.02201654330068545 0.006084138158370958 0.003852939500974956 0.001653092910540892 1:-0.06334 2:-0.273985 3:0.27459 4:-0.31521 5:-0.739347 6:-0.993316 
0 3.093618333640123 0 0.4280677110955271 0.06561049178455713 2.430730023732452 0 1:-0.164941 2:-0.360231 3:0.790984 4:-0.659341 5:-0.0826231 6:-0.967933 
0 0.1222955481320048 0 0.05935040934857849 0.01659463867938199 0.02207744312511214 0.005590886751362261 1:-0.273616 2:-0.107591 3:0.254098 4:-0.607941 5:-0.609206 6:-0.443864 
-0.2677542077208526 0.1779928620821538 0 0.06586673631008549 0.0187903484280651 0.04401197460959565 0.007037919309305237 1:-0.433606 2:-0.279279 3:0.393443 4:-0.920276 5:-0.563198 6:-0.329684 
0 0.0333484095466496 0.01063244802216857 0.04995668262251981 0.0145231975315036 0.03423236544697143 0.006009668351061997 1:0.658286 2:-0.23702 3:0.364754 4:-0.247429 5:-0.816985 6:-0.918643 
0 0.1796013788841045 0.01444537919711401 0.06544814128923998 0.018539211217159 0.04493600222830738 0.007446709987331266 1:0.167385 2:0.366503 3:-0.0122951 4:-0.851855 5:-0.408866 6:0.142383 
0 0.2697899321956659 0.02363042645712343 0.105028222419142 0.02991156858298899 0.07244546762734921 0.01233846559636126 1:-0.333548 2:0.863457 3:-0.770492 4:-0.999968 5:-0.688396 6:1 
0 0 0 0 0 0 0.003799912394822925 1:-0.264613 2:-0.265769 3:0.0327869 4:-0.556362 5:-0.0472558 6:-0.95433 
0 0.1090258998773864 0.01061172859342288 0.04875047770167435 0.01417651616870363 0.03537033186292919 0.005609204334515623 1:-0.483892 2:0.182445 3:-0.29918 4:0.176369 5:-0.553295 6:-0.991733 
0 0 0.004073656830620759 0.02089572840406396 0.006525155520485859 0.01235768890584788 0.001591839158657749 1:0.755257 2:-0.762953 3:0.180328 4:-0.738941 5:-0.929778 6:-0.999171 
-17.43072811686315 0 0 0 0.004602627317309926 0.008108422738529754 0.0008432523789815407 1:-0.848498 2:-0.979138 3:-0.512295 4:-0.997265 5:-0.753431 6:-0.997366 
0 0.1661605867871873 0.00778174986296361 0.04032632304120296 0.01086611384713471 0.02588000239030991 0.003281638376561113 1:0.763745 2:-0.436329 3:0.151639 4:-0.411193 5:-0.824865 6:-0.972567 
0 0.1386936096443645 0.0123663551374787 0.05497767291784026 0.01572861765694194 0.03899474505516807 0.006311843722695196 1:0.782265 2:-0.284024 3:-0.655738 4:-0.716619 5:-0.263934 6:-0.86841 
0 0 0 0.009503640728936341 0.003073929358858811 0.02047274023525236 0.0009965969925738406 1:0.00765224 2:-0.477952 3:0.188525 4:-0.498431 5:-0.801908 6:-0.932929 
0 0.9654912235864362 0.01590365304724033 0.05153421982018744 0.01632889881340199 0.06198603900292801 0.008660275979320621 1:-0.170471 2:0.241645 3:0.67623 4:-0.073432 5:-0.330347 6:-0.682585 
0 0 0.001585757787189944 0.01031050776554189 0.002326324379972836 0.004778142549624764 0.0009518338191173514 1:0.699055 2:-0.690178 3:0.372951 4:-0.861165 5:-0.805164 6:-0.81079 
0 0.3316606074746609 0.02277735363191853 0.1027295503738828 0.02933411557558996 0.06684385569777135 0.01177614684562663 1:0.299852 2:0.327375 3:0.557377 4:0.460645 5:-0.844274 6:-0.99578 
0 0.2891719399798405 0.02472602989660256 0.1113591681575899 0.03205211597269206 0.07536681647432048 0.01293033549492823 1:0.40454 2:0.508824 3:-0.47541 4:0.350538 5:-0.344955 6:-0.967809 
0 0 0 0 0 0 0.0008910216981220142 1:-0.463571 2:-0.7411 3:0.836066 4:-0.744425 5:-0.868224 6:-0.978317 
0 0.7700976039932771 0 0 0 0 0 1:0.308212 2:-0.194229 3:0.598361 4:-0.173273 5:-0.8129 6:-0.954091 
0 0.4250219344849828 0.01075467155270496 0.08775634821300765 0.02781664838031597 0.06217699716932073 0.01058981883722623 1:-0.283647 2:-0.0709513 3:0.737705 4:-0.925324 5:-0.225313 6:-0.304984 
0 0 0 0 0 0.07076916586399983 0 1:-0.37959 2:-0.594024 3:0.811475 4:-0.741724 5:-0.538428 6:-0.859999 
0 0.3132510614396404 0.0265736509912128 0.1196639223571064 0.0343813412426609 0.08171155732887908 0.01355368137749841 1:0.136133 2:0.933708 3:-0.655738 4:1 5:-0.605466 6:-0.983366 
0 0 0 0.03009298945846713 0.00873524111175247 0.02173532077599481 0.00390829048764673 1:0.112597 2:-0.818296 3:0.491803 4:-0.983568 5:-0.821701 6:-0.826685 
0 0 0 0 0 0.008298944505130778 0 1:-0.329947 2:-0.969954 3:0.442623 4:-0.989063 5:-0.932896 6:-0.978911 
-5.625812361319455 0.4859899520982821 0 0 0 2.216877230045762 0.004121049347633744 1:-0.245579 2:0.0858834 3:0.368852 4:-0.287437 5:0.185823 6:-0.946568 
0 0 0.03958376714689404 0 0 0.9485663829225042 0.004613520245006429 1:-0.446081 2:-0.403017 3:0.782787 4:-0.522408 5:-0.543852 6:-0.954878 
0 0.02422095357730782 0.0009244137508045425 0.008676854558535455 0.002656085507722283 0.005432275226409648 0 1:0.862903 2:-0.532956 3:-0.745902 4:-0.78051 5:-0.557228 6:-0.956908 
0 0.4724960950973327 0.009711245848682755 0.06044802018811993 0.0162471896157531 0.2370463875536904 0.00624751988097022 1:0.180889 2:0.238157 3:0.389344 4:0.0817476 5:-0.396504 6:-0.982105 
0 0 0 0.03722842292593939 0.008747348318206829 0.01872159760737574 0.002224705756273534 1:-0.262041 2:-0.923895 3:-0.17623 4:-0.992354 5:-0.895971 6:-0.927453 
-66.5643662192598 0 0 0 0 0 0 1:-0.849142 2:-0.942564 3:-0.372951 4:-0.947579 5:-0.874126 6:-0.994703 
0 0.05853032809851592 0.00497032645129218 0.02635167419130246 0.007639071052717258 0.01986901257342296 0.002623380267766592 1:0.794483 2:-0.402565 3:-0.356557 4:-0.386674 5:-0.767658 6:-0.991384 
0 0.4038278076354764 0.01792422944806084 0.07586289191706147 0.02189606758618077 0.0540794954338454 0.008322965873081512 1:0.118256 2:0.103912 3:0.438525 4:-0.849291 5:-0.38663 6:-0.101025 
0 0.1940247858274333 0.01768798662076656 0.07175617405374996 0.02007134666687949 0.05006910957739546 0.009143856748459986 1:0.999743 2:-0.995923 3:-1 4:-0.998874 5:-0.951499 6:-0.999568 
0 0 0.002851680736115823 0.005296187565958622 0.001193524527196941 0 0.0007181237962067745 1:-0.394508 2:0.00253409 3:0.741803 4:0.0396975 5:-0.706101 6:-0.949462 
0 0.02734768428621958 0.001940901316328162 0.01121077614221372 0.003515565991619332 0.0117857877557597 0.00291135010260757 1:0.415729 2:-0.263844 3:-0.135246 4:-0.239912 5:-0.782513 6:-0.992756 
-17.43082540256462 0 1.016297915596653 0.05001501290468005 0.01395396377430405 0.01928025624514805 0.005509840131265073 1:-0.316571 2:-0.768055 3:-0.0163934 4:-0.901932 5:-0.379521 6:-0.983892 
0 0 0.002783564315360119 0.01495628879186742 0.003991156646352079 0.008020033078504409 0.001063158716992351 1:-0.597454 2:0.172178 3:-0.770492 4:0.200034 5:-0.559355 6:-0.959995 
0 0 0.006130022468203378 0 0.002349053366159668 0 0 1:0.113498 2:-0.44753 3:0.897541 4:-0.421202 5:-0.847798 6:-0.977796 
-4.609763281195503 0.2427481547787825 6.581375720517147 0 0 0.1503037431456787 0.006283126902665044 1:-0.559257 2:-0.614474 3:0.290984 4:-0.872499 5:-0.0665646 6:-0.967674 
0 0.3475436469378576 0.02342352985784147 0.1032424355607391 0.02935527879196292 0.07053367726204712 0.01187805850837076 1:-0.277989 2:-0.0364269 3:-0.57377 4:-0.462943 5:0.0530884 6:-0.78341 
-0.5914050701577791 0 0 0 0 0 0 1:0.0678413 2:-0.0321108 3:0.487705 4:-0.282896 5:-0.0883953 6:-0.966231 
0 0.08965204279973045 0.01023857048379732 0.03452650200067407 0.009979690375127399 0.01622145835281216 0.003422432272251274 1:-0.589737 2:-0.108026 3:0.360656 4:-0.0789835 5:-0.692116 6:-0.988467 
0 0 0.001032033646573154 0 0.01060936042605948 0.02361667420252346 0.005360426991061782 1:-0.831008 2:-0.56518 3:-0.512295 4:-0.596444 5:-0.850919 6:-0.924427 
0 0.1995098964419595 0.01949692259189688 0.07531842040659389 0.02177930136417591 0.05075762524281433 0.008351532687139155 1:0.261398 2:-0.43788 3:-0.557377 4:-0.428851 5:-0.701774 6:-0.978962 
0 0.05964415731389618 0.01691547854302365 7.073542784249874 0.02241999176476883 0.05474176012058112 0.009036804017552434 1:-1 2:-0.999981 3:-0.893443 4:-0.999979 5:-0.997366 6:-0.999999 
0 0 0.00475976072014176 0.04684932736679506 0.005789630848464233 0.01352161499842394 0.002035559323193604 1:-0.769404 2:-0.251124 3:-0.745902 4:-0.313421 5:-0.676613 6:-0.985983 
-0.2763249025444654 0.1857077470929359 0 0.03469577178310529 0.0148101743114527 0.036910229534556 0.007639837118924235 1:-0.899299 2:-0.972232 3:0.282787 4:-0.986354 5:-0.789624 6:-0.998067 
0 0 0 0 0 0.002622705000799271 0 1:-0.277346 2:-0.0987133 3:0.331967 4:-0.0538332 5:-0.747846 6:-0.995523 
-8.613916335297075 0.1791829459693387 0.7558368335739222 0.04225000229114419 0.01398160330418869 0.01020305636424752 0.00730357034562985 1:-0.668832 2:-0.457565 3:0.196721 4:-0.751483 5:-0.242889 6:-0.681158 
0 0 0.007034372301741468 0.02844450414998948 0.00964497987071279 0.02424489527818702 0.003563432533712739 1:-0.509228 2:-0.0134014 3:-0.680328 4:-0.151 5:-0.640834 6:-0.97878 
0 0.02822365758578408 0.01003842619033081 0.003658966060135389 0 0.006225722212253601 0.003515308612882227 1:0.469102 2:-0.152456 3:0.67623 4:-0.355937 5:-0.494326 6:-0.790358 
0 1.43658101662487 0 0 0 0 0 1:-0.0118963 2:-0.390752 3:0.852459 4:-0.516938 5:-0.740196 6:-0.837799 
-0.5109489734814665 0.06847657093594058 0 0.06580249696530525 0.01963263057712036 0 0.004721634017197987 1:-0.569545 2:-0.668726 3:0.045082 4:-0.899705 5:-0.0527602 6:-0.960355 
0 16.82140143522549 0 0 0 0 0 1:-0.134461 2:-0.64268 3:0.831967 4:-0.642989 5:-0.828993 6:-0.97837 
0 0 0.01254619093593992 0 0.01612686162954868 0.03626873965846263 0.008573120692552838 1:-0.570574 2:-0.989741 3:-0.860656 4:-0.995983 5:-0.961852 6:-0.99938 
0 0.07175377145591533 0 6.645182340899927 0 0 0 1:-0.89364 2:-0.999411 3:-0.959016 4:-0.999745 5:-0.971346 6:-0.99993 
0 0.02347124925152749 0 0.01064998995071254 0.002451462573742311 0 0.001420129834001469 1:-0.0970356 2:-0.038136 3:0.52459 4:-0.711576 5:-0.459607 6:-0.309205 
0 0.1872888533006489 0.01093738322067749 0.05098500081049676 0.01482120032734935 0.03514785222332428 0.00646340776853048 1:-0.216128 2:0.551594 3:-0.286885 4:0.644058 5:-0.779528 6:-0.995764 
0 0 0.001474958885681685 0 0 0 0 1:-0.114784 2:0.128867 3:0.483607 4:-0.741477 5:-0.448543 6:-0.0881126 
0 0.2494918461849983 0.0210260805731702 0.0907981914508614 0.02561489025703007 0.06194258436863219 0.0102253040734309 1:0.444152 2:-0.3669 3:0.143443 4:-0.934534 5:-0.738008 6:-0.396702 
-0.4014921971173734 0.6433048524544903 0.01459945929102208 0 0 0 0.006753323557230484 1:-0.45264 2:0.0546694 3:0.0245902 4:-0.188657 5:0.051885 6:-0.948511 
-6.046655251181948 14.72778191584989 20.13270775613342 61.525356529348 19.01621463123941 14.56880354286116 6.052540847520619 1:0.0767153 2:-0.294114 3:0.893443 4:-0.850641 5:0.393864 6:-0.926836 
0 0 0.007543222324797766 0.01763932869546626 0.005189044754100213 0 0.004417872272138702 1:0.083403 2:-0.221049 3:0.967213 4:-0.435061 5:-0.66812 6:-0.833301 
0 0.04278444299646656 0.004853938292825806 0.03519026981904338 0.01044687039792436 0.03121068670153102 0.004004995550065039 1:-0.358241 2:-0.0515089 3:0.75 4:0.0400668 5:-0.860051 6:-0.990012 
0 0 0 0.008365624851946932 0 0.001708740511198653 0 1:0.171629 2:-0.434084 3:0.864754 4:-0.40392 5:-0.870081 6:-0.972664 
-6.763032847261667 0.6538343354291679 0 0.04612915931620355 0.02263935048961245 0.05605259691879691 0.009234193355339947 1:-0.820333 2:-0.737716 3:-0.430328 4:-0.884464 5:-0.409263 6:-0.984214 
0 0.07143990020927563 0.004700239622054788 0.02919548166107047 0.007867409513279203 0.01705038113974969 0.003867603269884391 1:-0.206611 2:-0.0119331 3:0.409836 4:0.0514147 5:-0.810142 6:-0.987593 
0 0.07453166735522958 0.007790407573041679 0.04087130857862849 0.01206505629721999 0.02814638194121624 0.004246920711307277 1:0.632435 2:-0.996083 3:-0.860656 4:-0.996253 5:-0.974355 6:-0.99997 
0 0.1210036105843254 0 0.04359530598942938 0.01279677135987069 0.03326232173402765 0.005146613170516498 1:-0.240949 2:-0.38948 3:-0.135246 4:-0.337601 5:-0.850876 6:-0.997929 
0 0 0 0.02101030298707141 0.005668929297261677 0 0.0005107454038110799 1:-0.611086 2:-0.444514 3:0.635246 4:-0.448115 5:-0.828527 6:-0.946957 
0 0 0 0 0 0.212051930239673 0.004257109723100908 1:-0.602469 2:-0.215586 3:0.0327869 4:-0.471029 5:0.0281715 6:-0.957326 
0 0 0.009293687487359236 0.02347241934934667 0.006933059467641513 0.02064336539697605 0.003466318467336417 1:0.443637 2:-0.537334 3:0.745902 4:-0.741109 5:-0.798589 6:-0.75921 
0 0.6675704079309079 0 0.04213643400524134 0.01172721104807075 0.03081268529837957 0.003949222002425041 1:0.253553 2:-0.863204 3:0.709016 4:-0.970835 5:-0.87142 6:-0.883407 
0 0 0.006523522721164856 0.06377629575066271 0.0180391858689157 0.04573526847686062 0.007347890590720506 1:0.231561 2:-0.735572 3:-0.00409836 4:-0.965313 5:-0.624004 6:-0.605536 
0 0.2150078337713432 0.01809760804996537 0.08307401118305784 0.02357084326824084 0.05289797491115689 0.009602123477246656 1:0.608385 2:-0.0951388 3:-0.540984 4:-0.469954 5:-0.0203006 6:-0.936156 
0 0.1183832129055044 0 0.05752580714361996 0.01545778734784894 0 0.006028198513290346 1:-0.729535 2:-0.405073 3:-0.155738 4:-0.614809 5:-0.0942366 6:-0.967928 
0 0 0 0 0.01076623872040272 0.02753195293895647 0.002948579739670277 1:-0.862903 2:-0.65395 3:-0.405738 4:-0.638222 5:-0.853795 6:-0.997325 
0 0.1239590909977807 0.01264747643999779 0.04877130056477602 0.01437075200289417 0.03502570920614226 0.007428399496312634 1:0.903672 2:-0.612887 3:-0.930328 4:-0.629962 5:-0.796942 6:-0.99709 
0 0 0.006639318046124359 0 0.005540662086227721 0.01233244709002565 0.001456091294106857 1:-0.937239 2:-0.825827 3:-0.856557 4:-0.81482 5:-0.885716 6:-0.997847 
0 0 0.007856919949901658 0.02680363008578862 0.007185151552520677 0.02002608628698418 0.004491934056366997 1:0.640152 2:-0.746654 3:-0.0204918 4:-0.726723 5:-0.950437 6:-0.993979 
0 0.3225986811251109 0.01274663326146657 0.0747457742882225 0.02177913254623775 0.0260276687002395 0.006325847983952446 1:-0.432963 2:0.213289 3:-0.0409836 4:0.018976 5:-0.271963 6:-0.97756 
0 0.03723601452082571 0 0.06462252593928974 0.01597817333083598 0.03810301882313904 0.007135450490566241 1:0.231432 2:-0.487227 3:0.266393 4:-0.884108 5:-0.109889 6:-0.53128 
0 0 0 0.01225628890387139 0.004718386469516138 0.01152288228521202 0.0006198733547396485 1:-0.116713 2:-0.77058 3:-0.17623 4:-0.772493 5:-0.78589 6:-0.99727 
-0.06704188162262462 0.3143564675252827 0.002132287496288718 0.09662333650947934 0.02750949675024934 0.06872128823005719 0.01096883797930677 1:-0.429233 2:-0.181186 3:-0.057377 4:-0.902908 5:-0.483712 6:-0.264273 
-0.09515197407407759 0 0 0.05215261534044664 0.01521079217768005 0.008975974612656127 0.006182450599152905 1:-0.546524 2:-0.620729 3:0.553279 4:-0.910552 5:-0.770672 6:-0.684491 
0 37.95903567421953 0 0.01301987142792682 0.002999838094478327 0.008898472334487293 0.004634364098797452 1:-0.049193 2:-0.966012 3:-0.118852 4:-0.978503 5:-0.906597 6:-0.988228 
0 0 0 0.04472378526748506 0.01308117236004404 0.01555171441007973 0.004233357567677785 1:-0.4147 2:-0.797579 3:0.811475 4:-0.857201 5:-0.962137 6:-0.999638 
0 0.1732456919605849 0.01325962547486578 0.06002766265083007 0.01677950619649868 0.04112759161562891 0.00728658986892536 1:0.578805 2:-0.661285 3:-0.663934 4:-0.772875 5:-0.407248 6:-0.97117 
0 1.591830809019881 0 0.04019879188032281 0.01199123642312669 0.02196639072959524 0.005327049071028197 1:0.0651405 2:-0.56803 3:0.454918 4:-0.5278 5:-0.896575 6:-0.995009 
-4.639642992138756 0 0 0 0 0 0 1:-0.979294 2:-0.952846 3:-0.795082 4:-0.97114 5:-0.857356 6:-0.994063 
0 0.2735581817542904 0.0239326668524643 0.06780460921663817 0.01956500945568937 0.05440330328050385 0.007220250256768821 1:0.385634 2:-0.73854 3:0.27459 4:-0.88058 5:-0.29177 6:-0.980833 
0 0.2798257863797494 0.02290194739778813 0.1059697144853874 0.03027467839509385 0.06821916631474496 0.01188864102224452 1:-0.505884 2:0.281552 3:-0.368852 4:-0.37795 5:0.447184 6:-0.917064 
0 0 0.001620087256586332 0.05138875907476589 0.01498899211645021 0 0.006754983994752579 1:-0.438621 2:-0.331776 3:0.67623 4:-0.261429 5:-0.934404 6:-0.996121 
0 0.04967413329672122 0 0 0.001757733936980113 0.01254926307163472 0 1:-0.772876 2:-0.655558 3:0.172131 4:-0.658334 5:-0.820518 6:-0.978705 
0 0 0 0 0 0 0.001468049120038925 1:-0.620089 2:-0.96439 3:0.508197 4:-0.981603 5:-0.935072 6:-0.980448 
0 0 0.07806403572908913 0 0 0 0 1:-0.409556 2:-0.129308 3:0.381148 4:-0.647175 5:0.209836 6:-0.644622 
0 0 0.01112539686342196 0.05288917649005314 0.01447185795298713 0.01732658477472163 0.004435333014063846 1:-0.338435 2:0.0398219 3:0.745902 4:-0.270645 5:-0.649563 6:-0.609307 
0 0.09305309208713938 0.01306109285009434 0.06636533868232687 0.01923723598908673 0.04403668513553628 0.008152192157323752 1:-0.58858 2:-0.104561 3:-0.442623 4:-0.0296088 5:-0.812845 6:-0.979664 
0 0.1703288004289882 0.01482649828201378 0.06490860765463508 0.0181056238408494 0.0395547514505325 0.0044270771581407 1:0.595267 2:-0.195404 3:-0.143443 4:-0.145556 5:-0.823017 6:-0.995755 
0 0.1954927538529242 0 0.04433654244532467 0.01595645931486675 0 0.003514271945734483 1:-0.615973 2:-0.198235 3:-0.192623 4:-0.441784 5:-0.166923 6:-0.968971 
0 0.02315943602701103 0.008388895063760588 0.04019220714267576 0.01159962633654376 0.02834246785924986 0.004904615621715047 1:-0.296122 2:0.191172 3:0.696721 4:0.0426721 5:-0.741365 6:-0.73576 
-17.10519603546207 0 0 0 0 0 0 1:-0.758729 2:-0.889351 3:-0.0327869 4:-0.938771 5:-0.824554 6:-0.997056 
0 0.05783655878142015 0 0.01008990389862493 0 0 0 1:-0.76979 2:-0.69101 3:-0.155738 4:-0.798079 5:-0.775353 6:-0.967815 
0 0 0 0.05568537896457055 0 0 0 1:-0.921163 2:-0.967113 3:0.0122951 4:-0.968819 5:-0.94066 6:-0.995515 
0 0 0.01486619918080953 0.04989116463256101 0.01405135371928704 0.03463622728680562 0.006829308487167628 1:0.659829 2:-0.937152 3:0.569672 4:-0.937221 5:-0.933558 6:-0.996774 
0 0 0.005328393209738989 0.03376517166912613 0.01073947824131508 0.02060385380330144 0.00457517426731395 1:0.372259 2:-0.32305 3:0.79918 4:-0.30418 5:-0.764134 6:-0.985172 
0 25.04069835298784 0 0 0 0 0 1:-0.0190985 2:-0.859878 3:0.684426 4:-0.892586 5:-0.851379 6:-0.966487 
0 0 0 0.007684156751903537 0.001359070330159367 0.008079743001947751 0.001429192138098425 1:0.538293 2:-0.72785 3:-0.581967 4:-0.749145 5:-0.720343 6:-0.992268 
0 0.2040493433105465 0.0165698232700077 0.07531778627159005 0.02177181999827044 0.05269839089601638 0.008533574561315122 1:-0.277346 2:0.402337 3:0.528689 4:-0.631173 5:-0.451914 6:0.112852 
0 0 0 0.01077694401186287 0.002654028013959796 0 0 1:0.0502219 2:-0.416006 3:0.352459 4:-0.600556 5:-0.73198 6:-0.784622 
0 0.2373978536137281 0.02105060302817261 0.09183557022787539 0.02598807590117085 0.06276609162967452 0.01027164407712917 1:-0.236962 2:0.183734 3:0.155738 4:-0.978512 5:-0.625129 6:0.234589 
0 0.1090162126595981 0.01101902997715707 0.05252733304354341 0.01522165167468156 0.03527880904532858 0.006272465885453877 1:0.0165263 2:0.379426 3:0.471311 4:-0.850958 5:-0.499149 6:0.309394 
-0.0653325217343773 0 0 0 0 0 0 1:-0.10771 2:-0.247205 3:0.0122951 4:-0.811657 5:0.323861 6:-0.932748 
0 1.320411491708486 0 0 0 0 0 1:-0.0311877 2:-0.353612 3:0.741803 4:-0.33956 5:-0.723821 6:-0.996514 
0 267.3518673860543 0 0 0 0 0 1:0.0590959 2:-0.693672 3:0.872951 4:-0.670063 5:-0.890242 6:-0.996786 
0 0 0 0.05786678136835274 0.01679110515272902 0.03496910661725294 0.004862119794747754 1:-0.215099 2:-0.965397 3:0.446721 4:-0.972027 5:-0.908402 6:-0.992829 
0 0 0 0.0224085577388549 0.005917244285315535 0 0.002985736072130145 1:-0.221143 2:-0.291978 3:0.942623 4:-0.603041 5:-0.658222 6:-0.64573 
0 0 0 0.02194158574435062 0.005887004085351639 0 0 1:-0.359398 2:-0.564291 3:0.909836 4:-0.601694 5:-0.701253 6:-0.967515 
0 0 0 0.03959058755580358 0.0112044937213054 0.00914726986619839 0.003635544360468423 1:-0.414829 2:-0.857588 3:0.713115 4:-0.975715 5:-0.679567 6:-0.903135 
0 0.1794325329005305 0.009774212860916521 0.04664053538485484 0.01292016340436891 0.02699817178539259 0.004398809027943137 1:-0.143721 2:0.145637 3:0.770492 4:0.219334 5:-0.767563 6:-0.994822 
-25.53274110635412 0 0 0 0 0 0 1:-0.72632 2:-0.8517 3:-0.143443 4:-0.896021 5:-0.671307 6:-0.959067 
-0.1577924445381684 0.3914034836874394 0 0 0 0 0 1:0.081088 2:-0.547969 3:0.286885 4:-0.90013 5:-0.151685 6:-0.611579 
0 0 0.00742237975713207 0.04024689102130182 0.0112858170100031 0.03098255172529625 0.004117557222883489 1:0.421774 2:-0.190988 3:0.487705 4:-0.117006 5:-0.88212 6:-0.99858 
0 37.95933692485932 0 5.920841952766631 0.4869619894865382 0 0 1:-0.17433 2:-0.303988 3:0.70082 4:-0.707629 5:0.135986 6:-0.949443 
0 0.09681860944267939 0.009445358568395221 0.01717342973266565 0.004662432765593761 0.01311270215051582 0.001108525510198056 1:-0.43875 2:-0.143047 3:-0.282787 4:-0.162066 5:-0.732475 6:-0.908949 
0 0.2426082186757873 0.02100117663226995 0.09531752824111936 0.02686778699865947 0.06487102515349776 0.01082614538068699 1:0.872934 2:-0.498863 3:-0.913934 4:-0.848807 5:-0.0665329 6:-0.951704 
0 0.02193010893814349 0.0215305433559158 0.01692734009478057 0.02467821700087397 0.05922525059483381 0.009666402253140579 1:-0.884638 2:-0.553001 3:-0.901639 4:-0.516905 5:-0.87032 6:-0.99914 
0 203.225413382694 0 0.04000546298389177 0.01120491534183625 0.03123668803478587 0.004055386002371387 1:-0.0484213 2:-0.733679 3:0.872951 4:-0.761667 5:-0.97491 6:-0.999876 
0 0 0.01164336519030153 0.05204626856994526 0.01453265043284958 0.03408640641404729 0.006171465426559022 1:0.531863 2:-0.902378 3:-0.0409836 4:-0.945345 5:-0.570105 6:-0.991383 
0 0 0 0.004717399044069592 0 0 0 1:-0.325188 2:-0.599711 3:0.770492 4:-0.868251 5:-0.784143 6:-0.70256 
0 0.09504353211918239 0.00234686410107458 0.02582170737639619 0.007376780662558702 0.01729694000716119 0.003512530548471604 1:0.40544 2:-0.494416 3:-0.131148 4:-0.795591 5:-0.404911 6:-0.766921 
0 0 0 0.02349649411068732 0.006983398514104809 0 0.004811618925505843 1:-0.707929 2:-0.648768 3:0.528689 4:-0.639188 5:-0.86519 6:-0.975784 
0 0 0 0.8683655896277994 0.2728772441912234 0 0 1:0.0786445 2:-0.132184 3:0.643443 4:-0.356995 5:-0.0405853 6:-0.964627 
0 0.1549751528978662 0.01297757760952065 0.06012821680927516 0.0174597971479904 0.04067187888279072 0.006033732553066533 1:0.567359 2:0.270108 3:-0.565574 4:0.412035 5:-0.940139 6:-0.999019 
0 0.1349761901860989 0.0052720645530403 0.06172171501507077 0.01750279225088432 0.04306701610166942 0.007008540639594018 1:-0.107067 2:-0.423945 3:-0.422131 4:-0.392389 5:-0.769544 6:-0.997309 
0 0 0 0 0 0 0.002018058921873583 1:-0.294451 2:-0.375327 3:0.327869 4:-0.380287 5:-0.574058 6:-0.991405 
-0.008477148489065479 3.226068289490487 0.190160643882262 0 0 0 0 1:-0.125973 2:-0.627726 3:0.840164 4:-0.881209 5:-0.0454392 6:-0.964148 
0 0 0 0.02318113064707883 0.005954614461139416 0.01039477952924931 0.001522075256073811 1:-0.0655263 2:-0.673429 3:0.278689 4:-0.658564 5:-0.850329 6:-0.988699 
0 0 0.0111386371819926 0.05013605002004906 0.01411477872435222 0.0349690825052292 0.005116496460505085 1:0.626133 2:-0.661685 3:0.72541 4:-0.747228 5:-0.667884 6:-0.903298 
-186.8985299863726 0 0.01507251554198119 0 0.01277850358863991 0.03133269734916032 0.006817627291515456 1:-0.982638 2:-0.999761 3:-0.381148 4:-0.99993 5:-0.992967 6:-0.99993 
0 0.2504692069359081 0.02261093424737995 0.09729155002038215 0.02812882710637094 0.06734932164825763 0.01109016922896153 1:0.343451 2:-0.304926 3:-0.479508 4:-0.792729 5:-0.381658 6:-0.529783 
0 0.1782732983367387 0.01830524443742776 0.07175251349195895 0.02016373050116643 0.05014205197952756 0.009037906773165072 1:-0.659315 2:-0.172002 3:0.20082 4:-0.0816469 5:-0.927472 6:-0.998472 
0 0.2288102653602828 0.02016086145136842 0.08601082571915486 0.02381717891859697 0.05589437525397621 0.009693682572902674 1:-0.568645 2:0.366361 3:-0.729508 4:0.372639 5:-0.645532 6:-0.981078 
0 0.1672586373498584 0.01435085651146553 0.0625874387685282 0.01849195059561678 0.03259174032564866 0.007068768742726057 1:0.574304 2:-0.214705 3:-0.00409836 4:-0.449916 5:-0.416432 6:-0.947726 
-15.81901737708647 0 0 0.01582603474586608 0.005434246876269526 0.01239387802684905 0.00229484505773375 1:-0.344351 2:-0.904526 3:-0.266393 4:-0.927457 5:-0.826719 6:-0.997847 
-0.2006074688877255 -1.011141125770382 4.033247502392215 0.2734389875042709 0 0 0 1:-0.0822455 2:0.674887 3:0.389344 4:-0.310943 5:0.427642 6:-0.664505 
0 0 0 0 0 21.08151537438986 0 1:-0.242621 2:-0.343925 3:0.766393 4:-0.717374 5:0.0773403 6:-0.924435 
-0.6940805119899535 0 4.740980545711006 0.3191830016631517 0 0 0 1:0.0454633 2:-0.834702 3:0.770492 4:-0.962096 5:-0.511971 6:-0.967218 
0 0 0 0 16384 0 0 1:-0.0225709 2:-0.264884 3:0.983607 4:-0.830016 5:0.373516 6:-0.92643 
0 0 19.72208704528041 0 0 29.49842499237578 0 1:-0.0099672 2:0.0390634 3:0.95082 4:-0.695902 5:0.670579 6:-0.834153 
0 -26.93285759568528 0 0 0 0 0 1:-0.178831 2:-0.31752 3:0.721311 4:-0.760162 5:0.109267 6:-0.933006 
-0.1414213616338421 0 0 0 0 0 0 1:-0.0351746 2:0.279849 3:0.75 4:-0.275965 5:0.149497 6:-0.610211 
0 0 16384 16384 16384 9677.435972266994 0 1:-0.0013504 2:-0.294029 3:0.991803 4:-0.871568 5:0.418479 6:-0.921563 
-0.3860794757712013 -4.683300700700649 0.5358105210801937 0.03274128609881203 0 0 0 1:-0.00623754 2:-0.957925 3:0.52459 4:-0.999477 5:-0.728614 6:-0.992288 
-0.1756366096076976 -0.3373182828674941 0.4432515100453656 0 0 0 0 1:0.0125394 2:0.397459 3:0.729508 4:-0.288067 5:0.524854 6:-0.719395 
0 -0.3442639388284456 0 0 0 0 0 1:0.143978 2:0.0916846 3:0.901639 4:-0.561823 5:0.384925 6:-0.617528 
0 0 0.04257583930041246 0 0 0 0 1:-0.0166549 2:0.105315 3:0.860656 4:-0.55799 5:0.326915 6:-0.7011 
-0.005498434251694804 0 0 0 0 0 0 1:-0.013311 2:-0.81796 3:0.79918 4:-0.797201 5:-0.992483 6:-0.999996 
0 -26.02047175860847 0 0 0 0 0 1:0.000192914 2:-0.827118 3:0.790984 4:-0.86799 5:-0.79544 6:-0.995682 
-0.3089347627246202 -0.05197523807018181 0 0 0 0 0 1:-0.026172 2:0.485422 3:0.356557 4:-0.390412 5:0.353522 6:-0.838335 
0 0 0 0.139590342826236 0 0 0 1:-6.43045e-005 2:-0.555777 3:0.901639 4:-0.540525 5:-0.743645 6:-0.989087 
0 -0.4993156195143849 0 0 0 0 0 1:-0.012025 2:0.231069 3:0.868852 4:-0.624411 5:0.827323 6:-0.795162 
-1.004028533855365 0 0 0 11.03626787201318 11.57621715152721 0 1:-0.219857 2:0.17842 3:0.692623 4:-0.82251 5:0.569368 6:-0.89832 
0 -14.96553022029549 5.373897521400244 32.16680240937425 29.71814775292574 0 0 1:-0.178317 2:-0.325814 3:0.770492 4:-0.71898 5:0.16145 6:-0.924571 
0 -144.0721702850402 0 0 0 0 0 1:0.00315092 2:-0.792331 3:0.836066 4:-0.782463 5:-0.94505 6:-0.999706 
0 0 0 0 4320.347104369225 0 0 1:-0.0458491 2:-0.222904 3:0.959016 4:-0.868385 5:0.410196 6:-0.870551 
-0.4478686326958981 -1.228357305476004 4.946974243696667 0.3246599772494879 0 0 0 1:0.0183268 2:0.87446 3:0.0819672 4:0.771912 5:-0.405224 6:-0.962633 
-0.3367506775266425 -1.593069762414649 3.710039979702052 0.2438643162832208 0 0 0 1:-0.0787731 2:0.651637 3:0.27459 4:0.651253 5:-0.552103 6:-0.943669 
-0.05809460632355128 0 1.309825647127407 0.08035995304116075 0 0 0 1:-0.0071378 2:-0.986606 3:0.278689 4:-0.986547 5:-0.997297 6:-0.999999 
0 -3.912665117131249 0 0 0 0 0 1:0.00379397 2:-0.999835 3:-0.430328 4:-0.999863 5:-0.994147 6:-0.999989 
-0.04218757077525304 0 0 0 0 0 0 1:-0.0013504 2:0.267539 3:0.831967 4:-0.386341 5:0.165262 6:-0.542122 
-0.5727756841790406 -1.73612155289966 6.326220374304363 0.4152758301180916 0 0 0 1:0.419459 2:-0.0392092 3:0.348361 4:-0.798677 5:-0.0185848 6:0.0578856 
-0.3062917255427532 -0.8172610166985708 3.920550788538811 0 0 0 0 1:-0.268471 2:0.190203 3:0.639344 4:-0.848512 5:1 6:-0.839309 
0 0 4.299985091569146 24.01070797901139 0 3.98170297780278 0 1:-0.219214 2:-0.0543884 3:0.922131 4:-0.653264 5:0.35867 6:-0.608522 
0 0 0 0 16384 0 0 1:-0.0309305 2:-0.285619 3:0.987705 4:-0.853173 5:0.372057 6:-0.927542 
0 -0.352084558517631 0 0 0 0 0 1:0.0497074 2:0.240751 3:0.852459 4:-0.424744 5:0.184772 6:-0.540991 
0 0 0 0 16384 0 0 1:-0.026172 2:-0.286416 3:0.987705 4:-0.879973 5:0.397638 6:-0.914541 
0 0 16384 0 16384 16384 0 1:-0.0115105 2:-0.275656 3:0.991803 4:-0.871393 5:0.428877 6:-0.920337 
0 -0.4309648775655506 0.4885840921092666 0 0 0 0 1:-0.000321523 2:-0.390859 3:0.946721 4:-0.878104 5:-0.328009 6:-0.726654 
0 -0.3472747859173711 0 0 0 0 0 1:0.0281011 2:0.377634 3:0.610656 4:-0.883732 5:0.765349 6:-0.73281 
0 0 0 0 26.83809038373085 0 0 1:0.00585171 2:-0.113157 3:0.979508 4:-0.746521 5:0.470391 6:-0.823752 
0 -0.3432925728682247 0 0 0 0 0 1:-0.00443701 2:-0.933814 3:0.635246 4:-0.970106 5:-0.688552 6:-0.986821 
0 0 0 0 16384 6978.734716438851 0 1:-0.0295158 2:-0.28514 3:0.991803 4:-0.864143 5:0.412793 6:-0.92315 
-0.2962972931091943 -1.031533644857323 3.568355995177128 0.2877189559903318 0 0 0 1:-0.00816668 2:0.413536 3:0.459016 4:-0.121484 5:-0.291937 6:-0.426331 
0 0 0 0 16384 3964.758869933557 0 1:-0.0130538 2:-0.2413 3:0.971311 4:-0.805205 5:0.374008 6:-0.929299 
0 0 0 0 16384 0 0 1:-0.0265578 2:-0.255537 3:0.983607 4:-0.840828 5:0.390467 6:-0.922952 
-0.03782609166315032 0 0 0 0 0 0 1:-0.0296444 2:0.398534 3:0.409836 4:-0.218233 5:-0.0133567 6:-0.61088 
-0.2425818955406196 -1.158384141217179 0 0 0 0 0 1:-0.25201 2:0.208322 3:0.70082 4:-0.616741 5:0.519652 6:-0.468312 
-8.071664282001304 0 0 0 0 0 53.23910330863316 1:-0.0136969 2:-0.376299 3:0.97541 4:-0.921232 5:0.412724 6:-0.913816 
0 0 0 0 16384 0 0 1:-0.0197415 2:-0.267537 3:0.987705 4:-0.849568 5:0.390493 6:-0.925618 
0 0 0 0 0 4.081358605369945 0 1:-0.22333 2:-0.258246 3:0.696721 4:-0.844594 5:0.0225145 6:-0.928589 
0 0 0 0 16384 0 0 1:-0.0138255 2:-0.272536 3:0.983607 4:-0.856347 5:0.403376 6:-0.920166 
0 -7.806813157306383 0 0 0 0 0 1:0.0629542 2:-0.22463 3:0.963115 4:-0.87676 5:0.460042 6:-0.882206 
0 -1.121369002862039 0 0 0 0 0 1:0.00302231 2:-0.942881 3:0.413934 4:-0.952067 5:-0.877514 6:-0.997577 
0 0 9.840800329888275 0 0 0 0 1:0.00495145 2:0.149032 3:0.901639 4:-0.733824 5:0.736298 6:-0.829566 
0 0 0 0 16384 0 0 1:-0.0255289 2:-0.269998 3:0.987705 4:-0.850311 5:0.408161 6:-0.924262 
0 -236.9792528290022 0 0 0 0 0 1:0.00186483 2:-0.692026 3:0.872951 4:-0.680297 5:-0.836349 6:-0.997007 
0 0 0.02083912315936022 0 0 0 0 1:0.00392258 2:-0.999436 3:-0.217213 4:-0.999619 5:-0.986414 6:-0.999983 
0 -0.1719235752288618 3.419252693577216 0 0 0 0 1:-0.0206418 2:-0.0143352 3:0.954918 4:-0.553713 5:0.16373 6:-0.661094 
-0.02423812020143903 0 0 0 0 0 0 1:0.00237927 2:0.515067 3:0.405738 4:-0.16702 5:0.316269 6:-0.845513 
-0.682623414723159 -1.501827350426472 5.653796347430728 0 0 0 0 1:-0.15118 2:-0.320393 3:0.54918 4:-0.929984 5:-0.156815 6:-0.970362 
0 -0.003409581752360361 0 0 0 0 0 1:0.0791589 2:0.218491 3:0.864754 4:-0.537246 5:0.673316 6:-0.717536 
-0.2629831279879795 -0.9157294654482437 3.925794786230544 0 0 0 0 1:0.245065 2:0.389716 3:0.454918 4:-0.639437 5:0.555612 6:-0.847173 
-0.1527132846802017 -0.4640538024685186 2.196065951044294 0.01562995236121098 0 0 0 1:0.0359462 2:0.398158 3:0.545082 4:-0.543034 5:-0.0410805 6:-0.396949 
-0.5955422508218099 -1.713982093324016 6.343403184846754 0.4151913186782492 0 0 0 1:-0.53765 2:-0.160529 3:0.20082 4:-0.875985 5:-0.000724044 6:0.0430704 
0 -29.21240929253523 0 0 0 0 0 1:0.00186483 2:-0.701408 3:0.819672 4:-0.813389 5:-0.923853 6:-0.998975 
0 0 2.995635370760219 0 0 0 0 1:-0.856987 2:-0.647144 3:-0.57377 4:-0.984712 5:-0.675136 6:-0.9071 
-0.1347168500228395 -0.06180390554967959 0 0 0 0 0 1:-0.00315092 2:0.368622 3:0.67623 4:-0.624832 5:0.907564 6:-0.791596 
-0.1421061966491986 -0.6249089693853848 1.192304363363548 0.09361645914959091 0 0 0 1:0.0111247 2:0.39999 3:0.405738 4:-0.0344288 5:-0.17178 6:-0.626007 
-0.4595335433239016 -1.815749953017317 5.058000394062104 0.2946564199514861 0 0 0 1:-0.37496 2:0.368079 3:0.180328 4:-0.759062 5:0.669246 6:-0.891404 
-0.5728243449403202 -4.499366555786553 6.341758422104018 0.4163873871131743 0 0 0 1:-0.742139 2:-0.0592749 3:-0.795082 4:-0.396052 5:-0.344171 6:-0.961393 
-0.1626049345006826 -0.5820875604177489 0.3440875548955604 0 0 0 0 1:0.106038 2:0.35692 3:0.536885 4:-0.754589 5:0.169295 6:-0.65865 
0 0 2.613296599207534 0.1856241721303341 0 0 0 1:0.000321523 2:-0.96638 3:0.512295 4:-0.975529 5:-0.991291 6:-0.999984 
0 -1.762309242317369 0 0 0 0 0 1:-0.0071378 2:-0.178492 3:0.790984 4:-0.814875 5:0.33153 6:-0.824418 
-0.1974078554321188 0 0 0 0 0 0 1:-0.014983 2:-0.951976 3:0.508197 4:-0.950818 5:-0.993902 6:-0.999995 
0 0 0 0 16384 0 0 1:0.0115105 2:-0.27276 3:0.983607 4:-0.871072 5:0.406716 6:-0.910469 
0 0 0 4432.941836200987 16384 16384 0 1:-0.0241142 2:-0.293753 3:0.991803 4:-0.87434 5:0.410997 6:-0.926215 
0 0 0 102.3874450459144 2091.609111894175 2471.442361984041 0 1:-0.156967 2:-0.322736 3:0.95082 4:-0.872783 5:0.387983 6:-0.925064 
0 -0.5959226927165738 10.55961941805725 0 4.160400820493435 0 0 1:-0.0987075 2:0.199116 3:0.590164 4:-0.861338 5:0.386961 6:-0.925631 
0 0 0 0 14808.22296007908 0 0 1:0.0232139 2:-0.234671 3:0.979508 4:-0.874167 5:0.455637 6:-0.901304 
-0.396840812499682 -9.352709558198525 4.465265313461074 0.292271057138307 0 0 0 1:0.0446917 2:-0.448868 3:0.713115 4:-0.448615 5:-0.872657 6:-0.99897 
0 0 0 0 201.0757642486007 0 0 1:-0.0235998 2:0.0213343 3:0.954918 4:-0.724416 5:0.566619 6:-0.796707 
0 0 0 12.37398369593039 0 0 0 1:-0.0109961 2:-0.0594608 3:0.971311 4:-0.650586 5:0.435908 6:-0.773039 
0 0 2.150986956898603 0.1385943197075427 0 0 0 1:0.00186483 2:-0.97374 3:-0.135246 4:-0.98919 5:-0.99654 6:-0.999998 
-2.22940545848265 -5.221529562555619 3.347317455986449 0.4810917150472998 0 0 0 1:-0.858144 2:-0.651489 3:-0.57377 4:-0.984877 5:-0.686928 6:-0.907143 
-0.03584422068939931 -0.2888236947382592 0 0 0 0 0 1:0.00405119 2:0.319013 3:0.778689 4:-0.768841 5:0.91274 6:-0.816457 
-0.391666469522881 0 3.981557519248129 0 0 0.1600766112942504 0 1:-0.128545 2:-0.401099 3:0.844262 4:-0.587602 5:-0.513609 6:-0.990208 
-0.2851824780317097 -0.6621119460862323 2.531567341299255 0.204240817927598 0 0 0 1:0.0454633 2:0.398199 3:0.422131 4:-0.498771 5:-0.119525 6:-0.584493 
0 0 0 0 16384 0 0 1:-0.0206418 2:-0.258774 3:0.983607 4:-0.838071 5:0.381652 6:-0.923001 
0 0 0 563.5664849855932 0 0 0 1:-0.170343 2:-0.341728 3:0.946721 4:-0.880078 5:0.392088 6:-0.928535 
-0.1692817007121305 -0.7598469190571877 2.387318699664544 0 0 0 0 1:-0.0756865 2:0.342277 3:0.696721 4:-0.273843 5:-0.0548244 6:-0.411261 
-0.4737346953554135 -39.01784164978105 0 0 0 0 0 1:-0.0226995 2:-0.980065 3:-0.0983607 4:-0.984162 5:-0.952832 6:-0.999719 
-0.1137288280154722 -123.727096392425 2.074760469127484 0.04662496669072683 0 0 0 1:0.00803807 2:-0.655294 3:0.901639 4:-0.679766 5:-0.944935 6:-0.999564 
0 -0.01370174740865582 2037.191436863051 0 0 0 0 1:0.00456562 2:-0.381006 3:0.97541 4:-0.915532 5:0.401191 6:-0.916568 
-10.07224201568438 0 0 0 0 33.9228664696151 0 1:-0.223072 2:-0.333723 3:0.803279 4:-0.920285 5:0.548194 6:-0.906903 
0 -0.2207331614290715 12.14905597134342 0 7.350154806654488 0 0 1:-0.0206418 2:0.203413 3:0.868852 4:-0.9418 5:0.286032 6:-0.649244 
-0.1694179320616068 -0.4280084340765478 1.557072676586103 0.05230557567007616 0 0.0527888993837609 0 1:-0.029773 2:0.439927 3:0.586066 4:-0.0436998 5:0.127511 6:-0.714231 
0 0 0 0 16384 0 0 1:0.013311 2:-0.246457 3:0.983607 4:-0.883672 5:0.438326 6:-0.907641 
-0.0746937186863967 0 0.976871609489396 0.02398365624207105 0 0 0 1:-0.0246286 2:-0.887818 3:0.729508 4:-0.875675 5:-0.986959 6:-0.999986 
0 0 0 0 16384 16384 0 1:-0.0417337 2:-0.269491 3:0.987705 4:-0.857273 5:0.411034 6:-0.924367 
-0.2041935139122297 -0.702187503917121 2.773862275881413 0.07480034939213198 0 0 0 1:0.0109961 2:0.496157 3:0.536885 4:-0.0661997 5:0.352929 6:-0.812304 
0 0 5170.972226419272 16384 16384 10433.76642318686 0 1:-0.0225709 2:-0.30928 3:0.995902 4:-0.876814 5:0.405075 6:-0.925071 
0 0 0 0 0 0 20.95115574362187 1:-0.00353675 2:-0.324508 3:0.979508 4:-0.909153 5:0.421899 6:-0.899843 
0 0 0 0 16384 0 0 1:-0.0098386 2:-0.248997 3:0.97541 4:-0.859092 5:0.405014 6:-0.913786 
-0.1059304119688046 0 0 0 0 0 0 1:0.0027651 2:0.176154 3:0.893443 4:-0.733987 5:0.802893 6:-0.834724 
0 0 0 0.372064802459641 0 0 0 1:-0.212141 2:0.176175 3:0.70082 4:-0.819431 5:0.765151 6:-0.858708 
0 -1.640150392464319 10.23873906278965 3.374344995001946 0 1.442730015475161 0 1:-0.14282 2:0.171808 3:0.721311 4:-0.49617 5:0.293022 6:-0.937211 
0 0 0 0.9721418199530358 0 0 0 1:-0.212012 2:0.186617 3:0.684426 4:-0.75952 5:0.854526 6:-0.864104 
-0.1811388515129963 -100.1674068653667 0 0 0 0 0 1:6.43045e-005 2:-0.733406 3:0.848361 4:-0.718458 5:-0.988438 6:-0.999988 
-0.3862657189901346 -2.902226619483865 0.09385610338754331 0 0 0 0 1:-0.0575526 2:-0.442325 3:0.803279 4:-0.631124 5:-0.364833 6:-0.831642 
-0.01837221383565918 -0.06178930263424173 0 0 0 0 0 1:-0.237091 2:0.24571 3:0.598361 4:-0.561484 5:0.433369 6:-0.916838 
0 0 0 0 0 0 92.7098530729795 1:0.0184554 2:-0.265279 3:0.987705 4:-0.887419 5:0.444026 6:-0.896737 
0 0 4.167059345975327 0 0 0 0 1:0.0593531 2:0.0175041 3:0.946721 4:-0.570885 5:0.275665 6:-0.662449 
0 0 0 0 16384 4776.000904134424 0 1:-0.012025 2:-0.279277 3:0.991803 4:-0.866784 5:0.41822 6:-0.923413 
-0.5599111080702256 -1.649591274461745 6.197987003118923 0.4072444618923147 0 0 0 1:0.0785159 2:1 3:-0.0778689 4:-0.267725 5:0.214963 6:-0.872965 
0 0 1.635120674627264 0.1119925887616987 0 0 0 1:-6.43045e-005 2:-0.998954 3:-0.106557 4:-0.999099 5:-0.992005 6:-0.999994 
0 0 0 0 16384 0 0 1:0.000578741 2:-0.265562 3:0.987705 4:-0.878721 5:0.429335 6:-0.908402 
0 0 0 0 16384 1448.28537431707 0 1:-0.0127966 2:-0.28253 3:0.987705 4:-0.845022 5:0.395019 6:-0.928611 
0 -0.03315123663960526 0.02898466762661064 0 0 0 0 1:0.136261 2:0.301774 3:0.721311 4:-0.509889 5:0.510575 6:-0.562187 
-0.07051343201091737 -0.3787677575001684 1.335895871396082 0 0 0 0 1:-0.0248859 2:0.34641 3:0.393443 4:-0.627256 5:0.813603 6:-0.807529 
0 0 0 0 16384 0 0 1:-0.0142113 2:-0.255159 3:0.987705 4:-0.867785 5:0.405319 6:-0.909335 
-0.4436654518453819 -1.391307418809933 4.973289875852988 0.3233683090034097 0 0 0 1:-0.0224423 2:0.506494 3:0.397541 4:0.316174 5:-0.344428 6:-0.817967 
0 0 105.7653544762701 133.3285969832624 0 237.3582621986159 0 1:0.038004 2:-0.346661 3:0.979508 4:-0.800133 5:0.234387 6:-0.848849 
0 0 0 0 16384 0 0 1:0.0147257 2:-0.224042 3:0.971311 4:-0.830525 5:0.421764 6:-0.909899 
0 -1.429472708076781 0 0 16384 0 0 1:0.0225709 2:-0.25314 3:0.971311 4:-0.832092 5:0.378646 6:-0.919581 
-1.384853274243709 -2.699786886109306 3.643868504792823 0.2405783156106028 0 0 0 1:-0.0043084 2:-0.9085 3:0.163934 4:-0.990987 5:-0.728131 6:-0.993486 
-0.02739718311350682 0 1.94088129594743 0.1977424646169607 0 0 0 1:0.00958138 2:-0.791381 3:0.831967 4:-0.799063 5:-0.989843 6:-0.999957 
-0.7874210056683649 -1.90350931856835 5.896671870083558 0.3882995984221904 0 0 0 1:-0.413157 2:0.341232 3:0.139344 4:-0.0153092 5:0.165622 6:-0.855284 
0 0 3743.417011695727 0 2580.542836647511 0 0 1:0.0353032 2:-0.257445 3:0.983607 4:-0.87083 5:0.427893 6:-0.906516 
-0.5271150997845029 0 5.588330879264877 0.3672510795400271 0 0 0 1:0.00263649 2:-0.998308 3:-0.577869 4:-0.998245 5:-0.999534 6:-1 
0 0 0 0 16384 2936.738584433813 0 1:-0.0220565 2:-0.282137 3:0.987705 4:-0.853843 5:0.374066 6:-0.929014 
0 0 0 0 16384 2988.94133668823 0 1:-0.0233426 2:-0.247193 3:0.979508 4:-0.834522 5:0.413634 6:-0.922256 
-0.04346708577910418 -0.04170915862078573 0 0 0 0 0 1:-0.0223137 2:0.394461 3:0.504098 4:-0.731664 5:0.326328 6:-0.566791 
-232.5824652297443 0 1309.025227572566 1575.917915517773 16384 4831.964930626199 0 1:0.00623754 2:-0.255514 3:0.987705 4:-0.866389 5:0.461392 6:-0.906033 
-118.0674532844483 0 9586.223886300722 16384 16384 16384 278.9682744491445 1:-0.0151116 2:-0.303976 3:0.987705 4:-0.883391 5:0.427211 6:-0.9238 
0 0 0 0 16384 0 0 1:-0.018584 2:-0.237253 3:0.983607 4:-0.837603 5:0.421248 6:-0.918891 
0 -3.778506711410016 0 8591.593918356699 2342.196976061944 1884.714446812253 0 1:0.0057231 2:-0.37621 3:0.97541 4:-0.912678 5:0.395859 6:-0.918468 
0 -0.7859613705884389 0 0 0 0 0 1:-0.334962 2:0.221683 3:0.495902 4:-0.723538 5:0.837129 6:-0.870906 
0 0 0 0 10202.1863819251 0 0 1:-0.0127966 2:-0.251137 3:0.979508 4:-0.868097 5:0.425852 6:-0.898511 
0 0 0 0 0 0 16384 1:-0.00379397 2:-0.3011 3:1 4:-0.902402 5:0.463128 6:-0.918515 
0 0 0 16384 0 0 0 1:0.00919555 2:-0.283008 3:0.995902 4:-0.899511 5:0.494318 6:-0.91924 
0 0 0 0 0 0 16384 1:0.00970999 2:-0.292918 3:1 4:-0.899201 5:0.455461 6:-0.916574 
0 0 0 16384 0 0 0 1:0.00353675 2:-0.302539 3:0.995902 4:-0.900565 5:0.471099 6:-0.916506 
0 -8.809433032294054 0 16384 0 0 0 1:0.100508 2:-0.310763 3:0.97541 4:-0.87406 5:0.405927 6:-0.924048 
0 0 0 16384 0 0 16384 1:0.00688059 2:-0.289817 3:0.995902 4:-0.901505 5:0.483375 6:-0.920395 
0 0 0 0 0 0 16384 1:0.00790946 2:-0.292658 3:1 4:-0.904701 5:0.474304 6:-0.917685 
0 0 0 16384 0 0 15931.3484963673 1:0.00868111 2:-0.300069 3:0.995902 4:-0.90545 5:0.483752 6:-0.918422 
0 -0.4661284148941341 -72.10760533107224 0 0 0 0 1:0.040319 2:-0.149023 3:0.954918 4:-0.861402 5:0.618249 6:-0.902299 
0 0 0 16384 0 0 16384 1:0.00122179 2:-0.309861 3:0.995902 4:-0.901427 5:0.438703 6:-0.920012 
0 0 0 0 0 0 16384 1:0.0071378 2:-0.30173 3:1 4:-0.900298 5:0.479322 6:-0.918928 
0 0 0 16384 0 0 0 1:0.0401903 2:-0.271691 3:0.991803 4:-0.886755 5:0.491931 6:-0.916104 
0 0 0 0 0 0 16384 1:-0.00533728 2:-0.296294 3:1 4:-0.894183 5:0.483896 6:-0.917021 
0 0 0 11649.2516145007 0 0 0 1:0.00868111 2:-0.321024 3:0.995902 4:-0.904659 5:0.469588 6:-0.920862 
0 0 0 0 0 0 16384 1:0.00443701 2:-0.294686 3:1 4:-0.89375 5:0.466626 6:-0.915948 
0 0 0 16384 0 0 16384 1:-0.00958138 2:-0.295859 3:0.995902 4:-0.89975 5:0.47918 6:-0.917365 
-6979.533236300157 0 0 0 0 0 0 1:-0.00880972 2:-0.272479 3:0.995902 4:-0.889279 5:0.474874 6:-0.9161 
0 0 0 16384 0 0 0 1:0.0500932 2:-0.308712 3:0.987705 4:-0.890631 5:0.504011 6:-0.915248 
0 0 0 0 0 0 16384 1:-0.000321523 2:-0.290163 3:1 4:-0.893167 5:0.475049 6:-0.917296 
0 0 0 0 0 0 16384 1:0.00829529 2:-0.300198 3:1 4:-0.90148 5:0.472136 6:-0.919984 
0 0 0 0 16384 11081.18877326984 0 1:-0.0198701 2:-0.294889 3:0.995902 4:-0.865215 5:0.429427 6:-0.924384 
0 0 0 16384 0 0 0 1:0.0127966 2:-0.304637 3:0.995902 4:-0.901626 5:0.467616 6:-0.919679 
0 0 0 0 0 0 16384 1:-0.00443701 2:-0.305138 3:1 4:-0.893845 5:0.456463 6:-0.918841 
0 0 0 16384 0 0 0 1:0.0710565 2:-0.279078 3:0.983607 4:-0.895651 5:0.516471 6:-0.914025 
0 0 0 0 0 0 16384 1:-0.00546589 2:-0.30195 3:1 4:-0.897961 5:0.465307 6:-0.916185 
0 0 0 0 0 0 12637.62867652745 1:0.00829529 2:-0.292834 3:1 4:-0.893174 5:0.471451 6:-0.918597 
0 0 0 0 0 0 16384 1:-0.0070092 2:-0.295863 3:1 4:-0.903239 5:0.481875 6:-0.919776 
0 0 0 16384 4215.393216603357 0 0 1:0.0423767 2:-0.317951 3:0.987705 4:-0.886463 5:0.408302 6:-0.922129 
0 0 0 16384 0 16384 0 1:-0.0129252 2:-0.297025 3:0.987705 4:-0.887257 5:0.471215 6:-0.916797 
0 0 -1858.672097758145 0 0 0 0 1:-0.00533728 2:-0.295992 3:1 4:-0.883172 5:0.423779 6:-0.900623 
0 0 0 0 0 0 16384 1:0.0027651 2:-0.299083 3:1 4:-0.899478 5:0.451131 6:-0.915145 
0 0 0 0 0 0 16384 1:-0.00302231 2:-0.285287 3:0.995902 4:-0.900474 5:0.469513 6:-0.916259 
0 0 0 16384 0 0 0 1:-0.0147257 2:-0.314953 3:0.995902 4:-0.901717 5:0.445163 6:-0.921684 
0 0 0 0 0 0 16384 1:0.00122179 2:-0.282336 3:1 4:-0.899345 5:0.491206 6:-0.91648 
0 0 0 16384 0 0 0 1:0.00636615 2:-0.303589 3:0.995902 4:-0.897076 5:0.454249 6:-0.920018 
0 0 0 0 0 0 16384 1:-0.00880972 2:-0.309405 3:1 4:-0.89829 5:0.444369 6:-0.920948 
0 0 0 16384 411.6922780399735 0 0 1:0.0308019 2:-0.292244 3:0.983607 4:-0.878363 5:0.475467 6:-0.917227 
-11251.2781760313 0 0 16384 16384 16384 0 1:-0.00353675 2:-0.278497 3:0.991803 4:-0.880141 5:0.455081 6:-0.920549 
0 0 0 16384 0 0 0 1:0.0055945 2:-0.308042 3:0.995902 4:-0.904834 5:0.470175 6:-0.917796 
0 0 0 16384 0 0 0 1:0.0452061 2:-0.283333 3:0.991803 4:-0.895685 5:0.486571 6:-0.916407 
0 0 0 16384 0 0 0 1:0.0028937 2:-0.296366 3:0.995902 4:-0.901302 5:0.491741 6:-0.91834 
0 0 0 0 0 0 16384 1:0.00366536 2:-0.29686 3:1 4:-0.901051 5:0.472352 6:-0.918226 
0 0 0 0 0 0 16384 1:0.0124108 2:-0.300088 3:1 4:-0.899787 5:0.476751 6:-0.918046 
0 0 0 16384 11310.66364207266 0 0 1:-0.0329882 2:-0.299421 3:0.991803 4:-0.864656 5:0.438804 6:-0.921228 
0 0 0 0 0 0 16384 1:0.000450132 2:-0.299341 3:1 4:-0.904551 5:0.466035 6:-0.917703 
0 0 0 0 0 0 16384 1:0.00546589 2:-0.293651 3:1 4:-0.895174 5:0.457689 6:-0.916745 
0 0 0 16384 0 0 16384 1:0.00636615 2:-0.302224 3:0.995902 4:-0.904659 5:0.46858 6:-0.917721 
-256.7677079024922 0 0 0 0 185.7541928647247 0 1:-0.00546589 2:-0.191491 3:0.97541 4:-0.848432 5:0.579004 6:-0.90478 
0 0 0 16384 0 0 0 1:0.0516366 2:-0.295405 3:0.987705 4:-0.90015 5:0.50186 6:-0.914854 
-909.2459773887389 -5.232838638204838 0 0 0 0 0 1:-0.384863 2:-0.814077 3:0.196721 4:-0.902721 5:-0.474376 6:-0.988899 
0 0 0 0 0 0 16384 1:-0.00340814 2:-0.289479 3:0.995902 4:-0.900386 5:0.492628 6:-0.915288 
0 0 0 15527.46717623346 10129.3053714867 0 0 1:0.0323452 2:-0.263593 3:0.991803 4:-0.867075 5:0.460456 6:-0.919835 
0 0 0 0 0 0 16384 1:-0.0027651 2:-0.296738 3:1 4:-0.899174 5:0.456512 6:-0.915606 
0 0 0 0 0 0 16384 1:0.00443701 2:-0.294378 3:1 4:-0.893041 5:0.441703 6:-0.920718 
0 0 0 1551.051308917914 0 0 0 1:-0.000578741 2:-0.281783 3:0.995902 4:-0.896314 5:0.489781 6:-0.918285 
0 0 0 16384 0 6202.964309391057 2108.001431973783 1:-0.0192271 2:-0.314949 3:0.995902 4:-0.906636 5:0.442731 6:-0.922401 
0 0 0 0 0 0 16384 1:0.012668 2:-0.300063 3:1 4:-0.899572 5:0.46404 6:-0.917961 
0 0 0 16384 0 0 0 1:0.0131824 2:-0.317201 3:0.995902 4:-0.900879 5:0.455156 6:-0.921835 
0 0 0 0 0 0 16384 1:0.00340814 2:-0.294008 3:1 4:-0.89714 5:0.47154 6:-0.917628 
0 0 0 16384 0 0 16384 1:-0.00585171 2:-0.302148 3:0.995902 4:-0.898138 5:0.465632 6:-0.919642 
0 0 0 6463.660773618805 0 0 16384 1:0.000450132 2:-0.29689 3:0.995902 4:-0.895859 5:0.463859 6:-0.920131 
0 0 0 0 0 0 16384 1:-0.00366536 2:-0.299364 3:1 4:-0.899267 5:0.458084 6:-0.919724 
0 0 0 16384 0 0 0 1:0.00662337 2:-0.314803 3:0.995902 4:-0.901 5:0.455006 6:-0.918974 
0 0 0 16384 0 0 0 1:0.0581956 2:-0.317765 3:0.991803 4:-0.903564 5:0.455715 6:-0.918722 
0 0 0 16384 0 264.1838401576592 0 1:0.0783872 2:-0.278933 3:0.979508 4:-0.90928 5:0.559496 6:-0.909328 
0 0 0 0 0 0 16384 1:0.00327953 2:-0.29791 3:0.995902 4:-0.902711 5:0.484011 6:-0.915492 
0 0 0 0 0 0 16384 1:0.00508006 2:-0.297545 3:1 4:-0.901626 5:0.487195 6:-0.917935 
0 0 0 0 0 0 16384 1:0.0027651 2:-0.297891 3:1 4:-0.898899 5:0.465526 6:-0.917733 
0 0 0 0 0 0 16384 1:-0.00186483 2:-0.299757 3:1 4:-0.895741 5:0.464674 6:-0.916871 
0 0 0 0 0 0 16384 1:0.00932416 2:-0.286851 3:1 4:-0.896172 5:0.464815 6:-0.916746 
0 0 0 0 0 0 16384 1:0.00790946 2:-0.294691 3:1 4:-0.898237 5:0.452746 6:-0.91668 
0 0 0 16384 0 0 16384 1:-0.00122179 2:-0.298354 3:0.995902 4:-0.90346 5:0.469922 6:-0.917816 
0 0 0 16384 0 2098.63863466911 0 1:0.0697704 2:-0.272141 3:0.983607 4:-0.904442 5:0.532 6:-0.912036 
-522.6787311068288 -5.066853899762212 -2235.678634174508 1376.12083776036 840.122363414964 2980.732914512928 0 1:0.040962 2:-0.195116 3:0.967213 4:-0.849407 5:0.412427 6:-0.923806 
0 0 0 16384 0 0 0 1:0.00662337 2:-0.302803 3:0.995902 4:-0.893437 5:0.443626 6:-0.920763 
0 0 0 16384 0 0 0 1:0.0160118 2:-0.315963 3:0.995902 4:-0.906925 5:0.452752 6:-0.921719 
0 0 0 16384 0 0 16384 1:-0.000192914 2:-0.298316 3:0.995902 4:-0.905216 5:0.476253 6:-0.914697 
0 0 0 16384 0 0 16384 1:-0.000964568 2:-0.298487 3:0.995902 4:-0.905312 5:0.495878 6:-0.917251 
0 0 -581.6640940072557 16384 16384 0 0 1:-0.0084239 2:-0.318086 3:0.991803 4:-0.865929 5:0.413988 6:-0.924771 
0 0 0 16384 0 0 0 1:0.0148544 2:-0.306052 3:0.995902 4:-0.901692 5:0.466378 6:-0.917467 
0 -7.759758515823703 -5225.335625307505 16384 5534.788826143702 3701.947406186298 0 1:0.0275867 2:-0.335002 3:0.954918 4:-0.891076 5:0.404461 6:-0.92316 
0 0 0 0 0 0 16384 1:-0.00508006 2:-0.296499 3:1 4:-0.906556 5:0.474957 6:-0.918849 
0 0 0 0 0 0 16384 1:0.00495145 2:-0.302459 3:1 4:-0.896418 5:0.478659 6:-0.919446 
0 0 0 0 0 0 16384 1:-0.00405119 2:-0.301231 3:1 4:-0.898668 5:0.44326 6:-0.918871 
0 0 0 16384 0 5864.872273620286 0 1:-0.00353675 2:-0.309063 3:0.987705 4:-0.882154 5:0.455499 6:-0.923773 
0 0 0 16384 0 305.6729964697586 0 1:-0.035046 2:-0.249124 3:0.991803 4:-0.881742 5:0.527909 6:-0.909415 
0 0 0 1335.111444011526 0 0 0 1:0.0171693 2:-0.256344 3:0.991803 4:-0.809076 5:0.4043 6:-0.924576 
0 0 0 0 0 0 16384 1:0.00469423 2:-0.29599 3:1 4:-0.896293 5:0.46286 6:-0.921484 
0 0 0 0 0 0 16384 1:-0.00109318 2:-0.300386 3:1 4:-0.89318 5:0.455683 6:-0.919247 
0 0 0 0 0 0 16384 1:0.0028937 2:-0.303718 3:1 4:-0.893493 5:0.449208 6:-0.919046 
0 0 0 0 0 14984.24703311168 0 1:-0.0198701 2:-0.279161 3:0.995902 4:-0.891125 5:0.471641 6:-0.919938 
0 0 0 16384 0 0 0 1:-0.00546589 2:-0.304833 3:0.995902 4:-0.891026 5:0.439236 6:-0.921209 
0 0 0 16384 0 0 0 1:0.0160118 2:-0.305002 3:0.995902 4:-0.903586 5:0.46404 6:-0.916498 
0 0 0 0 0 0 16384 1:0.00752363 2:-0.291697 3:1 4:-0.900259 5:0.475392 6:-0.918588 
0 0 0 16384 0 0 0 1:0.0121536 2:-0.304535 3:0.995902 4:-0.898033 5:0.464311 6:-0.91739 
0 0 0 0 0 0 16384 1:0.00880972 2:-0.293045 3:1 4:-0.902229 5:0.479857 6:-0.916448 
0 0 0 0 0 0 16384 1:0.0070092 2:-0.302548 3:1 4:-0.899495 5:0.483597 6:-0.918472 
0 0 0 0 0 0 16384 1:-0.00456562 2:-0.300965 3:1 4:-0.903383 5:0.481193 6:-0.915144 
0 0 0 16384 0 0 0 1:-0.0230853 2:-0.30863 3:0.991803 4:-0.893228 5:0.461726 6:-0.919792 
0 -4.202723428598643 0 0 0 0 0 1:-0.526333 2:-0.556062 3:0.459016 4:-0.850632 5:0.0585123 6:-0.956427 
0 0 0 16384 0 0 0 1:0.0494502 2:-0.287706 3:0.991803 4:-0.892199 5:0.480951 6:-0.916269 
0 0 0 0 0 0 16384 1:0.00662337 2:-0.292618 3:1 4:-0.89447 5:0.458616 6:-0.918258 
-202.435152402394 0 0 16384 0 0 0 1:0.0818597 2:-0.317296 3:0.987705 4:-0.896651 5:0.441049 6:-0.917341 
0 0 0 16384 0 0 16384 1:-0.0148544 2:-0.301753 3:0.995902 4:-0.903276 5:0.46816 6:-0.919842 
-1405.011026201775 0 0 0 0 0 0 1:-0.00906694 2:-0.253917 3:0.995902 4:-0.883605 5:0.509 6:-0.915354 
0 0 0 16384 0 0 0 1:-0.00199344 2:-0.303743 3:0.995902 4:-0.896328 5:0.45606 6:-0.923377 
0 0 0 16384 0 0 0 1:0.0665552 2:-0.275884 3:0.983607 4:-0.875164 5:0.510975 6:-0.915071 
0 0 0 0 0 0 16384 1:0.000835959 2:-0.291744 3:1 4:-0.898423 5:0.450426 6:-0.918121 
0 0 0 16384 0 0 0 1:0.0107389 2:-0.291285 3:0.995902 4:-0.903248 5:0.487293 6:-0.918265 
0 0 0 0 0 0 16384 1:0.000835959 2:-0.300648 3:1 4:-0.896572 5:0.465376 6:-0.917557 
0 0 0 0 0 0 16384 1:0.00495145 2:-0.285672 3:1 4:-0.89195 5:0.463306 6:-0.918712 
0 0 0 0 0 0 16384 1:-0.00469423 2:-0.295016 3:1 4:-0.897093 5:0.4723 6:-0.917634 
0 0 0 0 0 0 16384 1:-0.00443701 2:-0.293317 3:1 4:-0.892835 5:0.465978 6:-0.917972 
0 0 0 3197.739127314801 515.8895553456624 1041.281031068299 0 1:-0.178317 2:-0.304383 3:0.959016 4:-0.891968 5:0.412312 6:-0.925907 
0 0 0 15567.06082147101 0 0 0 1:0.0792875 2:-0.28732 3:0.987705 4:-0.877177 5:0.465083 6:-0.920576 
0 0 0 16384 0 0 0 1:0.00752363 2:-0.309627 3:0.995902 4:-0.902491 5:0.453288 6:-0.919978 
0 0 -16384 0 16384 16384 0 1:-0.00610893 2:-0.291758 3:0.995902 4:-0.872132 5:0.412773 6:-0.921877 
0 0 0 0 0 0 16384 1:0.00533728 2:-0.305852 3:1 4:-0.904112 5:0.457105 6:-0.918348 
0 0 0 0 0 0 16384 1:0.0041798 2:-0.307971 3:1 4:-0.902144 5:0.454419 6:-0.920054 
0 0 0 0 0 0 16384 1:0.0130538 2:-0.29217 3:1 4:-0.909339 5:0.487898 6:-0.915834 
0 0 0 16384 0 0 16384 1:-0.000450132 2:-0.30225 3:0.995902 4:-0.90041 5:0.465068 6:-0.920194 
0 0 0 0 0 0 16384 1:-0.00225066 2:-0.289006 3:0.995902 4:-0.898981 5:0.484126 6:-0.914836 
-9614.63060931214 0 0 0 0 0 0 1:0.0220565 2:-0.282154 3:0.995902 4:-0.892355 5:0.45642 6:-0.92049 
0 0 0 15499.76971318719 0 0 0 1:0.0345315 2:-0.314467 3:0.995902 4:-0.898643 5:0.436642 6:-0.920018 
0 0 0 16384 0 0 0 1:-0.00482284 2:-0.308328 3:0.995902 4:-0.896933 5:0.442702 6:-0.922895 
0 0 0 0 0 0 16384 1:0.00675198 2:-0.304702 3:1 4:-0.898976 5:0.470604 6:-0.923503 
0 0 0 16384 0 0 0 1:0.0136969 2:-0.316444 3:0.995902 4:-0.898107 5:0.439112 6:-0.922823 
-20.39640147584851 -6.474417947989367 0 0 0 0 0 1:-0.597968 2:-0.55054 3:0.336066 4:-0.796885 5:-0.229237 6:-0.962635 
0 0 0 12648.03089507293 1242.844920061291 6092.682555239818 0 1:-0.0684843 2:-0.283477 3:0.979508 4:-0.81525 5:0.398793 6:-0.922465 
0 0 0 16384 0 0 0 1:-0.0304161 2:-0.303095 3:0.987705 4:-0.889287 5:0.492081 6:-0.909723 
0 0 0 0 0 0 16384 1:0.00880972 2:-0.292073 3:0.995902 4:-0.903244 5:0.452971 6:-0.919892 
0 0 0 0 0 0 16384 1:0.000450132 2:-0.291203 3:1 4:-0.89507 5:0.478423 6:-0.920367 
0 0 0 1884.189264798977 0 0 0 1:0.0252717 2:-0.313552 3:0.995902 4:-0.865619 5:0.407939 6:-0.927699 
0 0 0 16384 0 0 0 1:0.0071378 2:-0.304064 3:0.995902 4:-0.892756 5:0.436754 6:-0.922399 
0 0 -16384 0 16384 3781.964770516441 0 1:-0.00443701 2:-0.288809 3:0.995902 4:-0.882848 5:0.433953 6:-0.919284 
0 0 0 16384 16384 0 0 1:-0.00610893 2:-0.31347 3:0.995902 4:-0.89109 5:0.42728 6:-0.92424 
0 0 0 0 0 0 16384 1:-0.00250788 2:-0.288997 3:1 4:-0.891425 5:0.472815 6:-0.918889 
0 0 0 0 0 0 16384 1:0.0148544 2:-0.297114 3:1 4:-0.89859 5:0.454848 6:-0.918268 
0 0 0 0 0 0 16384 1:0.012668 2:-0.298445 3:1 4:-0.899463 5:0.458942 6:-0.91952 
0 0 0 0 6625.390662009015 0 0 1:-0.00456562 2:-0.298176 3:0.995902 4:-0.887041 5:0.43872 6:-0.921755 
-990.0106702809031 0 -4112.740912479006 0 16384 16384 0 1:-0.0250145 2:-0.279708 3:0.995902 4:-0.881406 5:0.440045 6:-0.921506 
0 0 0 0 0 0 16384 1:-0.000192914 2:-0.288097 3:0.995902 4:-0.899707 5:0.486519 6:-0.914507 
0 0 0 0 0 0 16384 1:0.0121536 2:-0.298007 3:0.995902 4:-0.912079 5:0.478432 6:-0.912375 
0 0 0 16384 0 0 0 1:0.0287441 2:-0.316658 3:0.991803 4:-0.906589 5:0.47327 6:-0.91852 
0 0 -428.843895826633 0 2851.198348462476 0 0 1:-6.43045e-005 2:-0.25004 3:0.991803 4:-0.829287 5:0.458248 6:-0.918606 
0 0 0 16384 0 0 16384 1:0.000964568 2:-0.296125 3:0.995902 4:-0.901802 5:0.466015 6:-0.916175 
0 0 0 0 4297.535971726401 1534.749601748953 0 1:0.0302874 2:-0.281531 3:0.995902 4:-0.849405 5:0.370752 6:-0.928124 
0 0 0 9776.614827971556 0 0 0 1:0.0536943 2:-0.225566 3:0.979508 4:-0.880235 5:0.5479 6:-0.906389 
0 0 0 0 0 0 16384 1:-0.00662337 2:-0.29077 3:1 4:-0.898385 5:0.476506 6:-0.919147 
0 0 0 0 0 0 16384 1:-0.00366536 2:-0.293404 3:1 4:-0.899106 5:0.467397 6:-0.916835 
0 0 0 16384 13946.22655708801 16384 0 1:-0.0383898 2:-0.282583 3:0.991803 4:-0.884488 5:0.455326 6:-0.915781 
0 0 0 0 0 0 16049.78973734487 1:0.0183268 2:-0.300437 3:1 4:-0.901898 5:0.455182 6:-0.919867 
0 0 0 16384 0 0 0 1:0.0464922 2:-0.300238 3:0.987705 4:-0.885797 5:0.501319 6:-0.908707 
0 0 0 0 0 0 16384 1:0.0043084 2:-0.302165 3:1 4:-0.899114 5:0.479822 6:-0.916775 
0 0 0 0 0 0 16384 1:0.0104816 2:-0.289481 3:1 4:-0.896972 5:0.470886 6:-0.916954 
0 0 0 0 0 0 1297.429597178387 1:-6.43045e-005 2:-0.285011 3:0.995902 4:-0.895668 5:0.476437 6:-0.919112 
0 0 0 0 0 0 16384 1:0.00958138 2:-0.297509 3:0.995902 4:-0.901091 5:0.465912 6:-0.917868 
-1493.250512736692 0 0 0 0 0 16384 1:-0.00482284 2:-0.277124 3:0.995902 4:-0.897426 5:0.476739 6:-0.918914 
0 0 0 0 16384 0 0 1:0.00546589 2:-0.271006 3:0.995902 4:-0.850455 5:0.430582 6:-0.921244 
0 0 0 0 0 0 16384 1:-0.00688059 2:-0.290719 3:1 4:-0.893003 5:0.461274 6:-0.919978 
0 0 0 16384 0 0 16384 1:-0.000964568 2:-0.303521 3:0.995902 4:-0.902151 5:0.474263 6:-0.917173 
0 0 0 0 0 0 9335.514047265317 1:-0.00520867 2:-0.287402 3:0.995902 4:-0.896109 5:0.450771 6:-0.916528 
0 0 0 0 0 0 16384 1:-0.00340814 2:-0.303179 3:0.995902 4:-0.896576 5:0.445399 6:-0.922074 
0 0 0 0 0 0 16384 1:-0.00752363 2:-0.293463 3:1 4:-0.906518 5:0.460378 6:-0.917564 
0 0 0 0 0 0 16384 1:-0.00533728 2:-0.296214 3:1 4:-0.895746 5:0.461772 6:-0.916582 
0 0 0 0 0 0 16384 1:0.00456562 2:-0.287825 3:1 4:-0.894027 5:0.442719 6:-0.919078 
0 0 0 0 0 0 16384 1:-0.0115105 2:-0.279406 3:0.995902 4:-0.898523 5:0.488298 6:-0.916513 
0 0 -99.08288828077474 0 0 0 0 1:0.077487 2:-0.19304 3:0.963115 4:-0.859244 5:0.58226 6:-0.903198 
0 0 -7546.57275284268 16384 16384 0 0 1:-0.0346602 2:-0.30034 3:0.991803 4:-0.860041 5:0.421838 6:-0.920299 
0 0 0 16384 0 0 0 1:0.00752363 2:-0.302258 3:0.995902 4:-0.898382 5:0.459379 6:-0.91813 
0 0 0 0 0 0 16384 1:0.00469423 2:-0.307601 3:1 4:-0.901062 5:0.456446 6:-0.921934 
0 0 0 16384 16384 9419.549954730506 0 1:0.0288727 2:-0.278322 3:0.987705 4:-0.880503 5:0.460494 6:-0.919037 
0 0 0 16384 0 0 0 1:0.0153688 2:-0.310599 3:0.995902 4:-0.90162 5:0.467337 6:-0.921028 
0 0 0 16384 0 0 16384 1:0.00456562 2:-0.287941 3:0.995902 4:-0.899883 5:0.490394 6:-0.918751 
0 0 0 16384 0 0 0 1:-0.0130538 2:-0.288589 3:0.983607 4:-0.900962 5:0.50233 6:-0.899526 
0 0 0 0 16384 0 0 1:0.0124108 2:-0.282446 3:0.995902 4:-0.856124 5:0.411195 6:-0.926151 
0 0 0 0 0 0 16384 1:0.00533728 2:-0.296396 3:1 4:-0.903212 5:0.471952 6:-0.917019 
0 0 0 16384 0 0 16384 1:-0.00405119 2:-0.305133 3:0.995902 4:-0.908253 5:0.454531 6:-0.919137 
0 0 0 14392.52505581715 0 0 0 1:0.00263649 2:-0.309118 3:0.995902 4:-0.894034 5:0.469133 6:-0.922594 
0 0 0 0 0 16384 16384 1:-0.010353 2:-0.302621 3:0.995902 4:-0.900329 5:0.445526 6:-0.921483 
0 0 0 0 0 0 16384 1:-0.00649476 2:-0.287303 3:0.995902 4:-0.89785 5:0.472012 6:-0.916373 
0 0 0 0 0 0 16384 1:0.00970999 2:-0.29906 3:1 4:-0.899187 5:0.469332 6:-0.917348 
0 0 0 -16384 0 0 0 1:-0.0326024 2:-0.329697 3:0.991803 4:-0.903364 5:0.429879 6:-0.924215 
0 0 0 -16384 0 0 0 1:-0.00315092 2:-0.296833 3:0.991803 4:-0.882012 5:0.480942 6:-0.916474 
-428.4154039622508 0 0 -16384 0 0 16384 1:-0.00790946 2:-0.292829 3:0.995902 4:-0.902263 5:0.478705 6:-0.919386 
0 0 0 -16384 0 0 0 1:0.041605 2:-0.299055 3:0.991803 4:-0.896992 5:0.464763 6:-0.916297 
0 0 -10753.50776084128 0 16384 0 0 1:-0.00405119 2:-0.331888 3:0.991803 4:-0.886167 5:0.38836 6:-0.926239 
0 0 0 -16384 16090.90497388358 0 0 1:0.0153688 2:-0.298225 3:0.991803 4:-0.897528 5:0.434071 6:-0.91823 
0 0 0 -16384 0 0 16384 1:0.0084239 2:-0.3044 3:0.995902 4:-0.898769 5:0.478219 6:-0.918409 
0 0 0 -16384 0 0 0 1:-0.0217992 2:-0.304434 3:0.991803 4:-0.885771 5:0.453031 6:-0.91869 
0 0 0 0 16384 16384 0 1:-0.0390329 2:-0.307259 3:0.983607 4:-0.870188 5:0.419887 6:-0.924312 
0 0 0 -14386.36523341862 0 0 0 1:0.0626969 2:-0.317355 3:0.987705 4:-0.878113 5:0.43245 6:-0.923131 
0 0 0 0 0 16384 0 1:-0.0852035 2:-0.304998 3:0.97541 4:-0.899148 5:0.440569 6:-0.923917 
0 0 0 0 2652.626690628796 0 0 1:0.0671983 2:-0.278066 3:0.959016 4:-0.825991 5:0.395145 6:-0.918964 
0 0 0 -16384 0 5170.287685444518 0 1:0.0605106 2:-0.312059 3:0.991803 4:-0.906545 5:0.475372 6:-0.916225 
0 0 0 -16384 0 0 0 1:0.032088 2:-0.30954 3:0.991803 4:-0.900073 5:0.452355 6:-0.917907 
0 0 0 -16384 0 0 0 1:0.014983 2:-0.297585 3:0.991803 4:-0.897241 5:0.448319 6:-0.920654 
0 0 0 -16384 0 0 0 1:-0.0157546 2:-0.299911 3:0.991803 4:-0.877408 5:0.457275 6:-0.919187 
0 0 0 -2239.832517258641 0 0 0 1:0.0125394 2:-0.289196 3:0.991803 4:-0.890883 5:0.491171 6:-0.916819 
0 0 -575.492063912565 0 16384 0 0 1:0.0345315 2:-0.302776 3:0.987705 4:-0.886657 5:0.418041 6:-0.921163 
-2.765723447777712 -16.29256324456227 -1.602712718396124 -50.23767482879687 0 0 0 1:-1 2:-0.998033 3:-0.995902 4:-0.998475 5:-0.95825 6:-0.999963 
0 0 0 0 0 16384 0 1:-0.0691274 2:-0.27157 3:0.987705 4:-0.894221 5:0.490791 6:-0.916754 
0 0 0 -16384 0 0 0 1:0.0364607 2:-0.307848 3:0.991803 4:-0.897898 5:0.444746 6:-0.915958 
0 0 0 -16384 0 16384 0 1:-0.0355604 2:-0.288112 3:0.991803 4:-0.901984 5:0.462759 6:-0.915525 
0 0 0 0 0 0 10272.93495530512 1:0.00893833 2:-0.292333 3:0.991803 4:-0.906674 5:0.475815 6:-0.916064 
0 0 0 0 0 16384 0 1:-0.0664266 2:-0.304943 3:0.987705 4:-0.902503 5:0.458084 6:-0.917888 
0 0 0 -7931.052832393118 0 0 0 1:0.0813453 2:-0.299406 3:0.979508 4:-0.89979 5:0.529708 6:-0.917482 
0 0 0 -16384 0 0 0 1:-0.00495145 2:-0.310607 3:0.995902 4:-0.897867 5:0.459094 6:-0.921562 
0 0 -2602.596575371049 -16384 16384 0 0 1:0.0192271 2:-0.299197 3:0.995902 4:-0.873345 5:0.430285 6:-0.920327 
0 0 0 -16384 0 0 0 1:-0.0190985 2:-0.307871 3:0.991803 4:-0.883592 5:0.450792 6:-0.92065 
0 0 0 -16384 0 0 0 1:-0.00263649 2:-0.272489 3:0.991803 4:-0.877773 5:0.48267 6:-0.916047 
-7346.846477011045 0 0 -16384 0 7527.267892140778 8132.545230543848 1:0.0163977 2:-0.299374 3:0.995902 4:-0.8902 5:0.441858 6:-0.923204 
-24.32853648649956 0 0 -332.1620141390645 1.557197311427059 0 0 1:-0.213813 2:-0.220428 3:0.868852 4:-0.761526 5:0.461472 6:-0.915877 
0 0 0 -16384 0 0 0 1:0.0315735 2:-0.320798 3:0.991803 4:-0.89627 5:0.427999 6:-0.925679 
-87.35951316973556 0 0 0 0 0 0 1:0.00212205 2:-0.264034 3:0.987705 4:-0.878355 5:0.485644 6:-0.919164 
0 0 0 -2513.363728468417 0 0 0 1:0.0956209 2:-0.240354 3:0.954918 4:-0.900793 5:0.617336 6:-0.901653 
0 0 0 0 0 16384 0 1:-0.0716996 2:-0.296898 3:0.983607 4:-0.897887 5:0.460966 6:-0.918241 
0 0 0 -16384 0 0 0 1:0.038004 2:-0.29471 3:0.991803 4:-0.904053 5:0.498688 6:-0.914743 
0 0 0 0 0 340.4118257801304 0 1:-0.182303 2:-0.226111 3:0.901639 4:-0.782923 5:0.470161 6:-0.918999 
0 0 0 -488.0760140650065 0 0 0 1:0.152337 2:-0.195812 3:0.918033 4:-0.900344 5:0.647622 6:-0.890016 
0 -13.42371776667247 0 0 0 0 0 1:0.192464 2:-0.301536 3:0.897541 4:-0.906449 5:0.489473 6:-0.914826 
0 0 0 -16384 0 0 0 1:0.0210276 2:-0.295755 3:0.991803 4:-0.90711 5:0.502773 6:-0.914031 
0 0 0 -16384 4470.351728889521 0 0 1:-0.0345315 2:-0.319453 3:0.991803 4:-0.87655 5:0.424458 6:-0.923179 
0 0 0 -16384 0 0 4510.478534099432 1:-0.021542 2:-0.3056 3:0.995902 4:-0.904066 5:0.468949 6:-0.91757 
0 0 0 -16384 0 0 0 1:0.027458 2:-0.330732 3:0.991803 4:-0.899333 5:0.412318 6:-0.925953 
0 0 0 -16384 0 0 0 1:-0.0071378 2:-0.302985 3:0.995902 4:-0.887176 5:0.471186 6:-0.91702 
0 0 0 -817.8300844926598 0 0 0 1:0.0237284 2:-0.324652 3:0.991803 4:-0.910229 5:0.455098 6:-0.921712 
0 0 0 -16384 0 0 0 1:-0.0225709 2:-0.270241 3:0.991803 4:-0.893445 5:0.507117 6:-0.911108 
0 0 0 0 0 16384 0 1:-0.0643689 2:-0.309709 3:0.983607 4:-0.882231 5:0.448005 6:-0.920981 
0 0 -2.714345426433598 -18.5787742647585 2.291811971605228 0 0 1:-0.247637 2:-0.230057 3:0.651639 4:-0.613349 5:0.224262 6:-0.944576 
0 0 0 -16384 0 0 409.267001915819 1:0.0305447 2:-0.260016 3:0.991803 4:-0.901995 5:0.532751 6:-0.91301 
0 0 0 -16384 0 0 0 1:0.0211562 2:-0.301865 3:0.991803 4:-0.894905 5:0.451226 6:-0.92091 
0 0 0 -16384 0 0 0 1:0.0470066 2:-0.303786 3:0.991803 4:-0.904962 5:0.482851 6:-0.916187 
0 0 0 -3095.888227949941 0 0 0 1:0.0170407 2:-0.215835 3:0.979508 4:-0.788299 5:0.478409 6:-0.918771 
0 0 0 0 16384 0 0 1:-0.0171693 2:-0.335196 3:0.991803 4:-0.890673 5:0.390758 6:-0.927264 
0 0 0 -6385.645940341848 0 13175.67708728969 0 1:-0.0333741 2:-0.318143 3:0.991803 4:-0.898637 5:0.422904 6:-0.922627 
0 0 0 0 0 2137.056596182356 0 1:-0.110925 2:-0.249204 3:0.959016 4:-0.791117 5:0.378672 6:-0.906925 
0 0 0 0 0 216.6179848315443 0 1:0.114141 2:-0.327253 3:0.967213 4:-0.914323 5:0.47642 6:-0.918054 
0 0 0 -16384 0 0 0 1:0.0554948 2:-0.272698 3:0.987705 4:-0.866896 5:0.478118 6:-0.91727 
0 0 0 -974.9988658466189 0 0 0 1:0.145521 2:-0.224991 3:0.930328 4:-0.869804 5:0.554038 6:-0.889451 
0 0 0 -16384 0 0 0 1:0.0373609 2:-0.30454 3:0.991803 4:-0.887617 5:0.441657 6:-0.921043 
0 0 0 -16384 0 0 0 1:0.0324738 2:-0.300431 3:0.991803 4:-0.900928 5:0.484861 6:-0.919128 
0 0 0 -16384 0 0 0 1:0.0383898 2:-0.288084 3:0.991803 4:-0.896717 5:0.492239 6:-0.915197 
0 0 -15311.2153184114 -16384 16384 16384 0 1:-0.0302874 2:-0.307459 3:0.991803 4:-0.88474 5:0.420661 6:-0.921586 
0 0 0 0 0 5201.447392957723 0 1:-0.00315092 2:-0.273911 3:0.983607 4:-0.887947 5:0.456452 6:-0.91963 
0 0 0 -16384 0 0 0 1:0.0608964 2:-0.268099 3:0.987705 4:-0.897249 5:0.547385 6:-0.911951 
0 0 0 -16384 0 0 0 1:0.0201273 2:-0.32462 3:0.991803 4:-0.908685 5:0.466899 6:-0.921388 
0 0 0 -16384 0 0 0 1:0.0225709 2:-0.292982 3:0.991803 4:-0.891636 5:0.479097 6:-0.918045 
0 0 0 0 0 10010.95042480306 0 1:-0.0599961 2:-0.267186 3:0.983607 4:-0.898048 5:0.508954 6:-0.913986 
0 0 0 -16384 0 0 0 1:0.0314449 2:-0.306059 3:0.991803 4:-0.904548 5:0.469643 6:-0.916759 
0 0 0 -16384 0 0 0 1:0.0515079 2:-0.28177 3:0.987705 4:-0.895986 5:0.503309 6:-0.912277 
0 0 0 -179.4904409274862 0 0 0 1:0.0619253 2:-0.144175 3:0.930328 4:-0.873018 5:0.689001 6:-0.892474 
0 0 -410.3942085383626 0 0 0 0 1:0.0558807 2:-0.387154 3:0.963115 4:-0.914074 5:0.378854 6:-0.925593 
0 0 0 -16384 0 0 0 1:0.0187126 2:-0.312432 3:0.995902 4:-0.902708 5:0.45403 6:-0.91878 
0 -0.3115149289798059 0 0 0 0 0 1:-0.148479 2:-0.225464 3:0.67623 4:-0.574292 5:0.177201 6:-0.948287 
0 0 0 -16384 0 0 16384 1:0.00366536 2:-0.297441 3:0.995902 4:-0.893836 5:0.471062 6:-0.92068 
0 0 0 -16384 0 0 0 1:0.0318308 2:-0.301846 3:0.991803 4:-0.899724 5:0.46305 6:-0.917707 
0 0 0 -16384 0 0 0 1:-0.00160761 2:-0.27142 3:0.991803 4:-0.886783 5:0.493112 6:-0.915522 
0 0 0 -6318.490615208491 0 0 0 1:0.0494502 2:-0.322053 3:0.987705 4:-0.8829 5:0.398753 6:-0.927288 
0 0 0 0 0 61.54931796716356 0 1:-0.222687 2:-0.239779 3:0.877049 4:-0.882049 5:0.508076 6:-0.911778 
0 -2.334316642371174 0 0 0 0 0 1:-0.0660408 2:-0.221995 3:0.897541 4:-0.68819 5:0.339462 6:-0.933491 
0 0 0 0 9239.756958833061 0 0 1:-0.0167835 2:-0.306272 3:0.987705 4:-0.883448 5:0.425797 6:-0.924262 
0 0 0 -16384 0 0 0 1:-0.0569095 2:-0.307366 3:0.991803 4:-0.907811 5:0.49644 6:-0.915139 
0 0 0 -15539.60497734773 0 0 0 1:0.0324738 2:-0.342884 3:0.991803 4:-0.909673 5:0.430251 6:-0.923022 
0 0 0 0 8084.862307625581 0 0 1:-0.0180696 2:-0.301798 3:0.983607 4:-0.882285 5:0.430947 6:-0.919531 
0 0 0 0 0 16384 0 1:-0.0454633 2:-0.257418 3:0.979508 4:-0.886465 5:0.503559 6:-0.91463 
-4158.526233551447 0 0 -16384 16384 16384 0 1:-0.0143399 2:-0.284734 3:0.995902 4:-0.881 5:0.457059 6:-0.920656 
0 -4.242161722734457 0 0 0 0 0 1:0.0718282 2:-0.123266 3:0.745902 4:-0.833537 5:0.604568 6:-0.898886 
0 0 0 -16384 0 0 0 1:0.0281011 2:-0.283937 3:0.991803 4:-0.899177 5:0.502091 6:-0.915921 
-3324.437803809178 0 0 -16384 0 0 0 1:0.035046 2:-0.294158 3:0.991803 4:-0.897059 5:0.471065 6:-0.917168 
0 0 0 -16384 0 0 0 1:0.0248859 2:-0.294093 3:0.991803 4:-0.907425 5:0.497392 6:-0.913256 
0 0 0 -16384 0 0 0 1:0.0165263 2:-0.299408 3:0.995902 4:-0.884388 5:0.448514 6:-0.919933 
0 0 0 0 0 16384 0 1:-0.0279725 2:-0.256742 3:0.983607 4:-0.866646 5:0.481918 6:-0.913169 
0 0 0 -16384 0 0 0 1:0.0224423 2:-0.287066 3:0.991803 4:-0.8957 5:0.49029 6:-0.915721 
0 0 0 0 0 3027.395008415397 0 1:-0.0418623 2:-0.310136 3:0.987705 4:-0.878043 5:0.437091 6:-0.925062 
0 0 0 -4665.694132074247 0 0 0 1:-0.0495788 2:-0.29584 3:0.991803 4:-0.897618 5:0.50463 6:-0.91465 
0 0 0 -16384 0 0 9512.982609504799 1:0.00610893 2:-0.319182 3:0.995902 4:-0.909728 5:0.466948 6:-0.918495 
0 -0.5482764519254954 0 0 55.93374424244757 76.71709265844422 0 1:-0.0590959 2:-0.108586 3:0.668033 4:-0.496985 5:0.273883 6:-0.933812 
0 0 0 -16384 0 0 0 1:0.0347888 2:-0.313947 3:0.991803 4:-0.902804 5:0.473368 6:-0.916486 
0 0 0 -16384 0 0 16384 1:-0.00816668 2:-0.292656 3:0.995902 4:-0.90442 5:0.483602 6:-0.917557 
0 0 0 -16384 0 0 0 1:0.0512507 2:-0.285644 3:0.991803 4:-0.895467 5:0.504273 6:-0.916483 
0 0 0 -16384 0 0 0 1:0.0281011 2:-0.306952 3:0.991803 4:-0.903992 5:0.455985 6:-0.919012 
0 0 0 -2875.030176366842 0 0 0 1:-0.032731 2:-0.307149 3:0.991803 4:-0.903696 5:0.453184 6:-0.921333 
0 0 0 -16384 0 0 0 1:0.026172 2:-0.304673 3:0.991803 4:-0.902777 5:0.480519 6:-0.91673 
0 -18.98783757036071 0 0 0 0 0 1:0.0314449 2:-0.31055 3:0.913934 4:-0.866075 5:0.449073 6:-0.9228 
0 0 0 0 0 16384 0 1:-0.0098386 2:-0.294374 3:0.987705 4:-0.887025 5:0.438165 6:-0.923067 
0 0 -4756.583758121084 0 0 0 0 1:-0.0245 2:-0.379181 3:0.97541 4:-0.909735 5:0.386324 6:-0.926996 
0 0 0 0 14599.71500627144 0 0 1:-0.0224423 2:-0.299093 3:0.987705 4:-0.856305 5:0.432827 6:-0.919847 
0 0 0 -16384 0 0 0 1:0.00508006 2:-0.293358 3:0.991803 4:-0.872401 5:0.451503 6:-0.921314 
0 0 -9711.628863341188 0 0 0 0 1:0.0167835 2:-0.305997 3:0.983607 4:-0.89024 5:0.42056 6:-0.92034 
0 0 0 -16384 0 0 0 1:0.00598032 2:-0.314116 3:0.995902 4:-0.894129 5:0.452343 6:-0.918092 
0 0 0 -16384 0 5414.941907275807 3084.802799017306 1:-0.021542 2:-0.289221 3:0.995902 4:-0.892271 5:0.480393 6:-0.915146 
0 0 0 0 0 16384 0 1:-0.0499646 2:-0.289542 3:0.983607 4:-0.875579 5:0.464772 6:-0.91844 
0 0 0 0 16384 0 0 1:0.00636615 2:-0.317441 3:0.987705 4:-0.877778 5:0.404626 6:-0.925966 
-156.4934385865421 0 0 0 0 1740.51567241846 0 1:-0.0497074 2:-0.203772 3:0.963115 4:-0.896959 5:0.525021 6:-0.913982 
0 0 0 -16384 0 0 0 1:-0.0196129 2:-0.302319 3:0.991803 4:-0.891695 5:0.467325 6:-0.917283 
0 0 0 -16384 0 0 0 1:-0.0279725 2:-0.314148 3:0.991803 4:-0.892245 5:0.456103 6:-0.920039 
0 0 -15792.21134277232 -16384 16384 16384 0 1:-0.0152402 2:-0.29119 3:0.991803 4:-0.864176 5:0.428443 6:-0.923394 
0 0 0 -5748.159794878578 0 0 0 1:0.140634 2:-0.298438 3:0.95082 4:-0.867081 5:0.432824 6:-0.915386 
0 0 0 0 0 0 43.20604778894141 1:-0.0013504 2:-0.286582 3:0.991803 4:-0.907539 5:0.527468 6:-0.914487 
0 -4.434264202593601 0 0 0 0 0 1:-0.191692 2:-0.244163 3:0.688525 4:-0.61167 5:0.200448 6:-0.946475 
0 -28.68509243138719 0 -1733.100074683133 0 0 0 1:0.0671983 2:-0.322406 3:0.963115 4:-0.828883 5:0.331 6:-0.933024 
0 0 0 -5152.998113106072 0 114.9829028797724 0 1:-0.0992219 2:-0.282313 3:0.963115 4:-0.806511 5:0.367318 6:-0.928038 
0 0 0 -16384 0 0 16384 1:-0.0121536 2:-0.310096 3:0.995902 4:-0.901739 5:0.454652 6:-0.918531 
0 0 0 -4360.375519452623 0 0 0 1:0.0999936 2:-0.298561 3:0.963115 4:-0.849897 5:0.389474 6:-0.926593 
0 0 -257.6534001775693 0 2249.011609401057 0 0 1:-0.0193557 2:-0.270108 3:0.983607 4:-0.794621 5:0.340766 6:-0.929057 
-373.3536093445571 0 -2805.241243875888 -16384 16113.46843175484 16384 2460.361845856462 1:-0.0288727 2:-0.288323 3:0.991803 4:-0.907937 5:0.434316 6:-0.923211 
0 0 0 -16384 0 0 16384 1:-0.00739502 2:-0.300984 3:0.995902 4:-0.904243 5:0.464967 6:-0.918336 
0 -5.169054918505358 -5.466596724765004 -5.18538581087224 0 6.891007890771491 0 1:-0.246351 2:-0.207372 3:0.639344 4:-0.548957 5:0.11793 6:-0.93983 
0 0 -1645.586380195477 -2999.000809824249 2480.612784883797 0 0 1:-0.0585814 2:-0.27075 3:0.983607 4:-0.811346 5:0.390968 6:-0.905302 
0 0 0 -16384 0 0 0 1:0.0360749 2:-0.280652 3:0.991803 4:-0.896767 5:0.50714 6:-0.915384 
0 0 0 -16384 0 0 0 1:0.0180696 2:-0.281309 3:0.991803 4:-0.895231 5:0.490305 6:-0.917089 
0 -3.311043768928831 0 0 0 0 0 1:-0.0807022 2:-0.282983 3:0.885246 4:-0.879238 5:0.446816 6:-0.920383 
0 0 0 -16384 16384 16384 0 1:-0.0216706 2:-0.304464 3:0.995902 4:-0.890052 5:0.429496 6:-0.92195 
0 0 0 -4444.850995284259 0 2204.638613522483 0 1:0.109639 2:-0.265118 3:0.971311 4:-0.881398 5:0.503081 6:-0.917751 
-1092.327230242189 0 0 0 0 0 0 1:0.0323452 2:-0.261996 3:0.987705 4:-0.892247 5:0.498242 6:-0.912762 
0 0 0 -1228.579918243663 0 0 0 1:0.0281011 2:-0.317955 3:0.991803 4:-0.90099 5:0.452191 6:-0.918767 
0 0 0 0 16384 0 0 1:-0.018584 2:-0.306925 3:0.987705 4:-0.873098 5:0.422578 6:-0.925231 
0 0 0 -16384 0 0 0 1:0.029773 2:-0.299459 3:0.995902 4:-0.892964 5:0.478138 6:-0.918086 
0 0 0 -16384 0 0 0 1:0.0028937 2:-0.318065 3:0.995902 4:-0.901857 5:0.454998 6:-0.922124 
0 0 -13146.50532749671 0 0 0 0 1:0.0127966 2:-0.22903 3:0.97541 4:-0.816853 5:0.402792 6:-0.918234 
0 0 0 0 0 16384 0 1:-0.0581956 2:-0.285148 3:0.987705 4:-0.862772 5:0.409857 6:-0.926082 
0 0 -16384 0 0 0 0 1:-0.0309305 2:-0.271872 3:0.987705 4:-0.850638 5:0.394503 6:-0.922474 
0 0 -16384 0 0 0 0 1:-0.0333741 2:-0.262241 3:0.983607 4:-0.836124 5:0.394693 6:-0.928426 
-4.818962449188977 -1.965588798009161 -35.82941167712377 -76.17359512424434 0 434.5317588424443 0 1:-0.227188 2:-0.117587 3:0.770492 4:-0.54413 5:0.245028 6:-0.94165 
0 0 0 0 -9838.198222377965 0 0 1:-0.000578741 2:-0.297424 3:0.987705 4:-0.854484 5:0.415666 6:-0.922886 
0 0 -16384 0 0 0 0 1:-0.0148544 2:-0.268969 3:0.991803 4:-0.864284 5:0.429269 6:-0.917791 
0 0 -1544.811279460455 0 0 16384 0 1:-0.128288 2:-0.292373 3:0.963115 4:-0.871426 5:0.399133 6:-0.922982 
0 0 -7468.440238840533 0 0 0 0 1:-0.0349174 2:-0.25825 3:0.983607 4:-0.870852 5:0.379913 6:-0.923023 
0 0 0 0 -16384 0 0 1:-0.0140827 2:-0.305877 3:0.991803 4:-0.859122 5:0.407726 6:-0.928884 
0 0 0 0 -8038.93891631455 0 0 1:-0.0444344 2:-0.317234 3:0.987705 4:-0.873797 5:0.403699 6:-0.925286 
0 0 -13635.47423983293 0 0 0 0 1:-0.0169121 2:-0.304905 3:0.983607 4:-0.863355 5:0.371979 6:-0.92428 
0 0 0 0 0 12072.98988873887 0 1:-0.0470066 2:-0.280559 3:0.983607 4:-0.833261 5:0.366808 6:-0.929988 
0 0 0 -16384 0 0 0 1:-0.0108675 2:-0.283244 3:0.991803 4:-0.865906 5:0.443828 6:-0.918908 
0 0 -4890.650699311901 0 0 0 0 1:-0.00315092 2:-0.202282 3:0.967213 4:-0.866322 5:0.447219 6:-0.882837 
0 0 0 0 0 1357.732166231534 0 1:0.0259147 2:-0.298088 3:0.97541 4:-0.835279 5:0.348821 6:-0.927593 
0 0 0 -16384 -9656.814825402742 0 0 1:0.0109961 2:-0.277777 3:0.991803 4:-0.870907 5:0.451578 6:-0.918317 
-371.8870489068318 0 0 -16384 0 0 0 1:0.00880972 2:-0.277819 3:0.991803 4:-0.875246 5:0.449778 6:-0.919121 
0 -11.15799762733737 0 0 0 0 0 1:0.0272008 2:-0.307341 3:0.983607 4:-0.875182 5:0.400014 6:-0.92202 
0 0 -16384 0 0 16384 0 1:-0.0250145 2:-0.28722 3:0.991803 4:-0.887466 5:0.436078 6:-0.917293 
0 0 -7803.14424767568 0 0 0 0 1:0.00109318 2:-0.213602 3:0.971311 4:-0.848968 5:0.424571 6:-0.903102 
0 0 -16384 0 0 0 0 1:-0.0228281 2:-0.265422 3:0.983607 4:-0.847621 5:0.385567 6:-0.925105 
0 0 -16384 0 0 0 0 1:-0.0107389 2:-0.271959 3:0.987705 4:-0.867775 5:0.416363 6:-0.919172 
0 0 0 -16384 0 0 0 1:-0.0112533 2:-0.303384 3:0.995902 4:-0.862689 5:0.400797 6:-0.92449 
0 0 -1662.837253465202 0 0 4945.604405845374 0 1:-0.0485499 2:-0.278533 3:0.987705 4:-0.854312 5:0.401868 6:-0.927085 
0 0 -16384 0 0 0 0 1:-0.0187126 2:-0.29122 3:0.991803 4:-0.875461 5:0.418919 6:-0.917416 
0 0 -3983.35263823816 0 0 0 0 1:-0.0162691 2:-0.30398 3:0.987705 4:-0.86974 5:0.389413 6:-0.920615 
0 0 -16384 0 0 0 0 1:0.012668 2:-0.290326 3:0.987705 4:-0.884653 5:0.427616 6:-0.916827 
0 0 -7688.606447297457 0 0 0 0 1:-0.0113819 2:-0.2736 3:0.987705 4:-0.847586 5:0.371132 6:-0.923231 
0 0 0 0 0 9450.847604388062 0 1:-0.0458491 2:-0.275073 3:0.979508 4:-0.858759 5:0.41167 6:-0.919832 
0 0 -4292.063193600106 0 0 3663.418030030826 0 1:-0.0704135 2:-0.328043 3:0.983607 4:-0.875881 5:0.370827 6:-0.92773 
0 0 0 0 0 4793.173596821071 0 1:-0.00199344 2:-0.285442 3:0.991803 4:-0.880464 5:0.436999 6:-0.922106 
0 0 -16384 0 0 0 0 1:-0.0111247 2:-0.268443 3:0.983607 4:-0.863256 5:0.400422 6:-0.913178 
0 0 0 -12527.85221686618 0 0 0 1:-0.00443701 2:-0.26857 3:0.991803 4:-0.838395 5:0.412767 6:-0.926152 
